digraph Tree {
node [shape=box] ;
0 [label="all_hospitalizations <= -0.252\ngini = 0.5\nsamples = 16024\nvalue = [8012, 8012]"] ;
1 [label="discharge_disposition_id_1 <= 0.5\ngini = 0.489\nsamples = 8104\nvalue = [4657, 3447]"] ;
0 -> 1 [labeldistance=2.5, labelangle=45, headlabel="True"] ;
2 [label="discharge_disposition_id_22 <= 0.5\ngini = 0.499\nsamples = 3352\nvalue = [1609, 1743]"] ;
1 -> 2 ;
3 [label="discharge_disposition_id_5 <= 0.5\ngini = 0.5\nsamples = 3042\nvalue = [1540, 1502]"] ;
2 -> 3 ;
4 [label="discharge_disposition_id_3 <= 0.5\ngini = 0.499\nsamples = 2885\nvalue = [1489, 1396]"] ;
3 -> 4 ;
5 [label="number_diagnoses <= -0.985\ngini = 0.494\nsamples = 1694\nvalue = [937, 757]"] ;
4 -> 5 ;
6 [label="gender_Female <= 0.5\ngini = 0.463\nsamples = 340\nvalue = [216, 124]"] ;
5 -> 6 ;
7 [label="imputed_age <= 0.888\ngini = 0.397\nsamples = 161\nvalue = [117, 44]"] ;
6 -> 7 ;
8 [label="imputed_age <= -2.247\ngini = 0.347\nsamples = 143\nvalue = [111, 32]"] ;
7 -> 8 ;
9 [label="gini = 0.0\nsamples = 2\nvalue = [0, 2]"] ;
8 -> 9 ;
10 [label="time_in_hospital <= 0.373\ngini = 0.335\nsamples = 141\nvalue = [111, 30]"] ;
8 -> 10 ;
11 [label="max_glu_serum_>300 <= 0.5\ngini = 0.284\nsamples = 111\nvalue = [92, 19]"] ;
10 -> 11 ;
12 [label="race_AfricanAmerican <= 0.5\ngini = 0.274\nsamples = 110\nvalue = [92, 18]"] ;
11 -> 12 ;
13 [label="imputed_age <= 0.261\ngini = 0.229\nsamples = 91\nvalue = [79, 12]"] ;
12 -> 13 ;
14 [label="num_meds_total <= 0.341\ngini = 0.158\nsamples = 58\nvalue = [53, 5]"] ;
13 -> 14 ;
15 [label="number_diagnoses <= -2.017\ngini = 0.049\nsamples = 40\nvalue = [39, 1]"] ;
14 -> 15 ;
16 [label="num_medications <= -0.801\ngini = 0.198\nsamples = 9\nvalue = [8, 1]"] ;
15 -> 16 ;
17 [label="num_meds_total <= -0.744\ngini = 0.444\nsamples = 3\nvalue = [2, 1]"] ;
16 -> 17 ;
18 [label="gini = 0.0\nsamples = 2\nvalue = [2, 0]"] ;
17 -> 18 ;
19 [label="gini = 0.0\nsamples = 1\nvalue = [0, 1]"] ;
17 -> 19 ;
20 [label="gini = 0.0\nsamples = 6\nvalue = [6, 0]"] ;
16 -> 20 ;
21 [label="gini = 0.0\nsamples = 31\nvalue = [31, 0]"] ;
15 -> 21 ;
22 [label="num_lab_procedures <= -0.074\ngini = 0.346\nsamples = 18\nvalue = [14, 4]"] ;
14 -> 22 ;
23 [label="gini = 0.0\nsamples = 8\nvalue = [8, 0]"] ;
22 -> 23 ;
24 [label="time_in_hospital <= -0.971\ngini = 0.48\nsamples = 10\nvalue = [6, 4]"] ;
22 -> 24 ;
25 [label="gini = 0.0\nsamples = 2\nvalue = [0, 2]"] ;
24 -> 25 ;
26 [label="num_lab_procedures <= 0.181\ngini = 0.375\nsamples = 8\nvalue = [6, 2]"] ;
24 -> 26 ;
27 [label="A1Cresult_None <= 0.5\ngini = 0.444\nsamples = 3\nvalue = [1, 2]"] ;
26 -> 27 ;
28 [label="gini = 0.0\nsamples = 1\nvalue = [1, 0]"] ;
27 -> 28 ;
29 [label="gini = 0.0\nsamples = 2\nvalue = [0, 2]"] ;
27 -> 29 ;
30 [label="gini = 0.0\nsamples = 5\nvalue = [5, 0]"] ;
26 -> 30 ;
31 [label="num_lab_procedures <= 0.003\ngini = 0.334\nsamples = 33\nvalue = [26, 7]"] ;
13 -> 31 ;
32 [label="num_lab_procedures <= -0.15\ngini = 0.444\nsamples = 21\nvalue = [14, 7]"] ;
31 -> 32 ;
33 [label="admission_type_id_2 <= 0.5\ngini = 0.388\nsamples = 19\nvalue = [14, 5]"] ;
32 -> 33 ;
34 [label="num_lab_procedures <= -1.832\ngini = 0.305\nsamples = 16\nvalue = [13, 3]"] ;
33 -> 34 ;
35 [label="gini = 0.0\nsamples = 1\nvalue = [0, 1]"] ;
34 -> 35 ;
36 [label="time_in_hospital <= -0.299\ngini = 0.231\nsamples = 15\nvalue = [13, 2]"] ;
34 -> 36 ;
37 [label="gini = 0.0\nsamples = 9\nvalue = [9, 0]"] ;
36 -> 37 ;
38 [label="num_medications <= 0.126\ngini = 0.444\nsamples = 6\nvalue = [4, 2]"] ;
36 -> 38 ;
39 [label="gini = 0.0\nsamples = 2\nvalue = [0, 2]"] ;
38 -> 39 ;
40 [label="gini = 0.0\nsamples = 4\nvalue = [4, 0]"] ;
38 -> 40 ;
41 [label="admission_source_id_7 <= 0.5\ngini = 0.444\nsamples = 3\nvalue = [1, 2]"] ;
33 -> 41 ;
42 [label="gini = 0.0\nsamples = 2\nvalue = [0, 2]"] ;
41 -> 42 ;
43 [label="gini = 0.0\nsamples = 1\nvalue = [1, 0]"] ;
41 -> 43 ;
44 [label="gini = 0.0\nsamples = 2\nvalue = [0, 2]"] ;
32 -> 44 ;
45 [label="gini = 0.0\nsamples = 12\nvalue = [12, 0]"] ;
31 -> 45 ;
46 [label="num_medications <= -1.295\ngini = 0.432\nsamples = 19\nvalue = [13, 6]"] ;
12 -> 46 ;
47 [label="gini = 0.0\nsamples = 3\nvalue = [0, 3]"] ;
46 -> 47 ;
48 [label="discharge_disposition_id_18 <= 0.5\ngini = 0.305\nsamples = 16\nvalue = [13, 3]"] ;
46 -> 48 ;
49 [label="gini = 0.0\nsamples = 9\nvalue = [9, 0]"] ;
48 -> 49 ;
50 [label="time_in_hospital <= -0.299\ngini = 0.49\nsamples = 7\nvalue = [4, 3]"] ;
48 -> 50 ;
51 [label="gini = 0.0\nsamples = 3\nvalue = [3, 0]"] ;
50 -> 51 ;
52 [label="num_lab_procedures <= -0.813\ngini = 0.375\nsamples = 4\nvalue = [1, 3]"] ;
50 -> 52 ;
53 [label="gini = 0.0\nsamples = 1\nvalue = [1, 0]"] ;
52 -> 53 ;
54 [label="gini = 0.0\nsamples = 3\nvalue = [0, 3]"] ;
52 -> 54 ;
55 [label="gini = 0.0\nsamples = 1\nvalue = [0, 1]"] ;
11 -> 55 ;
56 [label="num_medications <= -0.986\ngini = 0.464\nsamples = 30\nvalue = [19, 11]"] ;
10 -> 56 ;
57 [label="gini = 0.0\nsamples = 3\nvalue = [0, 3]"] ;
56 -> 57 ;
58 [label="admission_source_id_1 <= 0.5\ngini = 0.417\nsamples = 27\nvalue = [19, 8]"] ;
56 -> 58 ;
59 [label="race_Caucasian <= 0.5\ngini = 0.484\nsamples = 17\nvalue = [10, 7]"] ;
58 -> 59 ;
60 [label="discharge_disposition_id_18 <= 0.5\ngini = 0.245\nsamples = 7\nvalue = [6, 1]"] ;
59 -> 60 ;
61 [label="gini = 0.0\nsamples = 6\nvalue = [6, 0]"] ;
60 -> 61 ;
62 [label="gini = 0.0\nsamples = 1\nvalue = [0, 1]"] ;
60 -> 62 ;
63 [label="change_No <= 0.5\ngini = 0.48\nsamples = 10\nvalue = [4, 6]"] ;
59 -> 63 ;
64 [label="num_lab_procedures <= 0.283\ngini = 0.444\nsamples = 6\nvalue = [4, 2]"] ;
63 -> 64 ;
65 [label="gini = 0.0\nsamples = 3\nvalue = [3, 0]"] ;
64 -> 65 ;
66 [label="admission_type_id_8 <= 0.5\ngini = 0.444\nsamples = 3\nvalue = [1, 2]"] ;
64 -> 66 ;
67 [label="gini = 0.0\nsamples = 2\nvalue = [0, 2]"] ;
66 -> 67 ;
68 [label="gini = 0.0\nsamples = 1\nvalue = [1, 0]"] ;
66 -> 68 ;
69 [label="gini = 0.0\nsamples = 4\nvalue = [0, 4]"] ;
63 -> 69 ;
70 [label="race_AfricanAmerican <= 0.5\ngini = 0.18\nsamples = 10\nvalue = [9, 1]"] ;
58 -> 70 ;
71 [label="gini = 0.0\nsamples = 9\nvalue = [9, 0]"] ;
70 -> 71 ;
72 [label="gini = 0.0\nsamples = 1\nvalue = [0, 1]"] ;
70 -> 72 ;
73 [label="num_medications <= -1.048\ngini = 0.444\nsamples = 18\nvalue = [6, 12]"] ;
7 -> 73 ;
74 [label="race_AfricanAmerican <= 0.5\ngini = 0.444\nsamples = 6\nvalue = [4, 2]"] ;
73 -> 74 ;
75 [label="gini = 0.0\nsamples = 4\nvalue = [4, 0]"] ;
74 -> 75 ;
76 [label="gini = 0.0\nsamples = 2\nvalue = [0, 2]"] ;
74 -> 76 ;
77 [label="admission_type_id_1 <= 0.5\ngini = 0.278\nsamples = 12\nvalue = [2, 10]"] ;
73 -> 77 ;
78 [label="gini = 0.0\nsamples = 9\nvalue = [0, 9]"] ;
77 -> 78 ;
79 [label="discharge_disposition_id_2 <= 0.5\ngini = 0.444\nsamples = 3\nvalue = [2, 1]"] ;
77 -> 79 ;
80 [label="gini = 0.0\nsamples = 2\nvalue = [2, 0]"] ;
79 -> 80 ;
81 [label="gini = 0.0\nsamples = 1\nvalue = [0, 1]"] ;
79 -> 81 ;
82 [label="num_meds_total <= 0.341\ngini = 0.494\nsamples = 179\nvalue = [99, 80]"] ;
6 -> 82 ;
83 [label="imputed_age <= -0.366\ngini = 0.5\nsamples = 136\nvalue = [69, 67]"] ;
82 -> 83 ;
84 [label="num_medications <= 1.053\ngini = 0.454\nsamples = 43\nvalue = [28, 15]"] ;
83 -> 84 ;
85 [label="num_lab_procedures <= 1.048\ngini = 0.42\nsamples = 40\nvalue = [28, 12]"] ;
84 -> 85 ;
86 [label="num_medications <= -0.43\ngini = 0.368\nsamples = 37\nvalue = [28, 9]"] ;
85 -> 86 ;
87 [label="num_lab_procedures <= -1.195\ngini = 0.453\nsamples = 26\nvalue = [17, 9]"] ;
86 -> 87 ;
88 [label="gini = 0.0\nsamples = 3\nvalue = [0, 3]"] ;
87 -> 88 ;
89 [label="admission_type_id_3 <= 0.5\ngini = 0.386\nsamples = 23\nvalue = [17, 6]"] ;
87 -> 89 ;
90 [label="admission_source_id_4 <= 0.5\ngini = 0.266\nsamples = 19\nvalue = [16, 3]"] ;
89 -> 90 ;
91 [label="num_procedures <= 1.864\ngini = 0.198\nsamples = 18\nvalue = [16, 2]"] ;
90 -> 91 ;
92 [label="A1Cresult_>8 <= 0.5\ngini = 0.111\nsamples = 17\nvalue = [16, 1]"] ;
91 -> 92 ;
93 [label="gini = 0.0\nsamples = 14\nvalue = [14, 0]"] ;
92 -> 93 ;
94 [label="discharge_disposition_id_6 <= 0.5\ngini = 0.444\nsamples = 3\nvalue = [2, 1]"] ;
92 -> 94 ;
95 [label="gini = 0.0\nsamples = 1\nvalue = [0, 1]"] ;
94 -> 95 ;
96 [label="gini = 0.0\nsamples = 2\nvalue = [2, 0]"] ;
94 -> 96 ;
97 [label="gini = 0.0\nsamples = 1\nvalue = [0, 1]"] ;
91 -> 97 ;
98 [label="gini = 0.0\nsamples = 1\nvalue = [0, 1]"] ;
90 -> 98 ;
99 [label="num_lab_procedures <= -0.762\ngini = 0.375\nsamples = 4\nvalue = [1, 3]"] ;
89 -> 99 ;
100 [label="gini = 0.0\nsamples = 1\nvalue = [1, 0]"] ;
99 -> 100 ;
101 [label="gini = 0.0\nsamples = 3\nvalue = [0, 3]"] ;
99 -> 101 ;
102 [label="gini = 0.0\nsamples = 11\nvalue = [11, 0]"] ;
86 -> 102 ;
103 [label="gini = 0.0\nsamples = 3\nvalue = [0, 3]"] ;
85 -> 103 ;
104 [label="gini = 0.0\nsamples = 3\nvalue = [0, 3]"] ;
84 -> 104 ;
105 [label="num_lab_procedures <= -0.023\ngini = 0.493\nsamples = 93\nvalue = [41, 52]"] ;
83 -> 105 ;
106 [label="num_meds_total <= -0.744\ngini = 0.444\nsamples = 54\nvalue = [18, 36]"] ;
105 -> 106 ;
107 [label="time_in_hospital <= 0.037\ngini = 0.49\nsamples = 21\nvalue = [12, 9]"] ;
106 -> 107 ;
108 [label="num_procedures <= 0.1\ngini = 0.498\nsamples = 17\nvalue = [8, 9]"] ;
107 -> 108 ;
109 [label="num_lab_procedures <= -0.532\ngini = 0.49\nsamples = 14\nvalue = [8, 6]"] ;
108 -> 109 ;
110 [label="num_lab_procedures <= -1.985\ngini = 0.245\nsamples = 7\nvalue = [6, 1]"] ;
109 -> 110 ;
111 [label="gini = 0.0\nsamples = 1\nvalue = [0, 1]"] ;
110 -> 111 ;
112 [label="gini = 0.0\nsamples = 6\nvalue = [6, 0]"] ;
110 -> 112 ;
113 [label="num_procedures <= -0.489\ngini = 0.408\nsamples = 7\nvalue = [2, 5]"] ;
109 -> 113 ;
114 [label="num_medications <= -0.307\ngini = 0.278\nsamples = 6\nvalue = [1, 5]"] ;
113 -> 114 ;
115 [label="gini = 0.0\nsamples = 5\nvalue = [0, 5]"] ;
114 -> 115 ;
116 [label="gini = 0.0\nsamples = 1\nvalue = [1, 0]"] ;
114 -> 116 ;
117 [label="gini = 0.0\nsamples = 1\nvalue = [1, 0]"] ;
113 -> 117 ;
118 [label="gini = 0.0\nsamples = 3\nvalue = [0, 3]"] ;
108 -> 118 ;
119 [label="gini = 0.0\nsamples = 4\nvalue = [4, 0]"] ;
107 -> 119 ;
120 [label="num_procedures <= -0.489\ngini = 0.298\nsamples = 33\nvalue = [6, 27]"] ;
106 -> 120 ;
121 [label="gini = 0.0\nsamples = 14\nvalue = [0, 14]"] ;
120 -> 121 ;
122 [label="time_in_hospital <= -0.635\ngini = 0.432\nsamples = 19\nvalue = [6, 13]"] ;
120 -> 122 ;
123 [label="num_lab_procedures <= -1.959\ngini = 0.444\nsamples = 6\nvalue = [4, 2]"] ;
122 -> 123 ;
124 [label="gini = 0.0\nsamples = 2\nvalue = [0, 2]"] ;
123 -> 124 ;
125 [label="gini = 0.0\nsamples = 4\nvalue = [4, 0]"] ;
123 -> 125 ;
126 [label="num_lab_procedures <= -0.277\ngini = 0.26\nsamples = 13\nvalue = [2, 11]"] ;
122 -> 126 ;
127 [label="gini = 0.0\nsamples = 8\nvalue = [0, 8]"] ;
126 -> 127 ;
128 [label="num_procedures <= 0.1\ngini = 0.48\nsamples = 5\nvalue = [2, 3]"] ;
126 -> 128 ;
129 [label="gini = 0.0\nsamples = 2\nvalue = [2, 0]"] ;
128 -> 129 ;
130 [label="gini = 0.0\nsamples = 3\nvalue = [0, 3]"] ;
128 -> 130 ;
131 [label="time_in_hospital <= 1.718\ngini = 0.484\nsamples = 39\nvalue = [23, 16]"] ;
105 -> 131 ;
132 [label="num_medications <= -1.295\ngini = 0.451\nsamples = 35\nvalue = [23, 12]"] ;
131 -> 132 ;
133 [label="num_lab_procedures <= 0.232\ngini = 0.444\nsamples = 9\nvalue = [3, 6]"] ;
132 -> 133 ;
134 [label="num_medications <= -1.666\ngini = 0.375\nsamples = 4\nvalue = [3, 1]"] ;
133 -> 134 ;
135 [label="gini = 0.0\nsamples = 1\nvalue = [0, 1]"] ;
134 -> 135 ;
136 [label="gini = 0.0\nsamples = 3\nvalue = [3, 0]"] ;
134 -> 136 ;
137 [label="gini = 0.0\nsamples = 5\nvalue = [0, 5]"] ;
133 -> 137 ;
138 [label="num_enc_to_date <= 0.032\ngini = 0.355\nsamples = 26\nvalue = [20, 6]"] ;
132 -> 138 ;
139 [label="admission_source_id_1 <= 0.5\ngini = 0.32\nsamples = 25\nvalue = [20, 5]"] ;
138 -> 139 ;
140 [label="num_medications <= -0.554\ngini = 0.245\nsamples = 21\nvalue = [18, 3]"] ;
139 -> 140 ;
141 [label="num_procedures <= 0.394\ngini = 0.355\nsamples = 13\nvalue = [10, 3]"] ;
140 -> 141 ;
142 [label="num_lab_procedures <= 0.309\ngini = 0.278\nsamples = 12\nvalue = [10, 2]"] ;
141 -> 142 ;
143 [label="imputed_age <= 0.888\ngini = 0.444\nsamples = 6\nvalue = [4, 2]"] ;
142 -> 143 ;
144 [label="gini = 0.0\nsamples = 2\nvalue = [0, 2]"] ;
143 -> 144 ;
145 [label="gini = 0.0\nsamples = 4\nvalue = [4, 0]"] ;
143 -> 145 ;
146 [label="gini = 0.0\nsamples = 6\nvalue = [6, 0]"] ;
142 -> 146 ;
147 [label="gini = 0.0\nsamples = 1\nvalue = [0, 1]"] ;
141 -> 147 ;
148 [label="gini = 0.0\nsamples = 8\nvalue = [8, 0]"] ;
140 -> 148 ;
149 [label="number_diagnoses <= -1.501\ngini = 0.5\nsamples = 4\nvalue = [2, 2]"] ;
139 -> 149 ;
150 [label="gini = 0.0\nsamples = 2\nvalue = [2, 0]"] ;
149 -> 150 ;
151 [label="gini = 0.0\nsamples = 2\nvalue = [0, 2]"] ;
149 -> 151 ;
152 [label="gini = 0.0\nsamples = 1\nvalue = [0, 1]"] ;
138 -> 152 ;
153 [label="gini = 0.0\nsamples = 4\nvalue = [0, 4]"] ;
131 -> 153 ;
154 [label="discharge_disposition_id_2 <= 0.5\ngini = 0.422\nsamples = 43\nvalue = [30, 13]"] ;
82 -> 154 ;
155 [label="number_diagnoses <= -2.017\ngini = 0.381\nsamples = 39\nvalue = [29, 10]"] ;
154 -> 155 ;
156 [label="gini = 0.0\nsamples = 8\nvalue = [8, 0]"] ;
155 -> 156 ;
157 [label="num_meds_total <= 1.426\ngini = 0.437\nsamples = 31\nvalue = [21, 10]"] ;
155 -> 157 ;
158 [label="num_lab_procedures <= 0.385\ngini = 0.494\nsamples = 18\nvalue = [10, 8]"] ;
157 -> 158 ;
159 [label="num_med_changes <= 0.435\ngini = 0.444\nsamples = 15\nvalue = [10, 5]"] ;
158 -> 159 ;
160 [label="num_procedures <= 1.864\ngini = 0.355\nsamples = 13\nvalue = [10, 3]"] ;
159 -> 160 ;
161 [label="admission_type_id_1 <= 0.5\ngini = 0.278\nsamples = 12\nvalue = [10, 2]"] ;
160 -> 161 ;
162 [label="gini = 0.0\nsamples = 6\nvalue = [6, 0]"] ;
161 -> 162 ;
163 [label="num_lab_procedures <= -0.558\ngini = 0.444\nsamples = 6\nvalue = [4, 2]"] ;
161 -> 163 ;
164 [label="gini = 0.0\nsamples = 1\nvalue = [0, 1]"] ;
163 -> 164 ;
165 [label="num_procedures <= 0.1\ngini = 0.32\nsamples = 5\nvalue = [4, 1]"] ;
163 -> 165 ;
166 [label="gini = 0.0\nsamples = 4\nvalue = [4, 0]"] ;
165 -> 166 ;
167 [label="gini = 0.0\nsamples = 1\nvalue = [0, 1]"] ;
165 -> 167 ;
168 [label="gini = 0.0\nsamples = 1\nvalue = [0, 1]"] ;
160 -> 168 ;
169 [label="gini = 0.0\nsamples = 2\nvalue = [0, 2]"] ;
159 -> 169 ;
170 [label="gini = 0.0\nsamples = 3\nvalue = [0, 3]"] ;
158 -> 170 ;
171 [label="num_medications <= 2.659\ngini = 0.26\nsamples = 13\nvalue = [11, 2]"] ;
157 -> 171 ;
172 [label="race_Caucasian <= 0.5\ngini = 0.153\nsamples = 12\nvalue = [11, 1]"] ;
171 -> 172 ;
173 [label="num_med_changes <= 0.435\ngini = 0.5\nsamples = 2\nvalue = [1, 1]"] ;
172 -> 173 ;
174 [label="gini = 0.0\nsamples = 1\nvalue = [0, 1]"] ;
173 -> 174 ;
175 [label="gini = 0.0\nsamples = 1\nvalue = [1, 0]"] ;
173 -> 175 ;
176 [label="gini = 0.0\nsamples = 10\nvalue = [10, 0]"] ;
172 -> 176 ;
177 [label="gini = 0.0\nsamples = 1\nvalue = [0, 1]"] ;
171 -> 177 ;
178 [label="num_medications <= -0.43\ngini = 0.375\nsamples = 4\nvalue = [1, 3]"] ;
154 -> 178 ;
179 [label="gini = 0.0\nsamples = 3\nvalue = [0, 3]"] ;
178 -> 179 ;
180 [label="gini = 0.0\nsamples = 1\nvalue = [1, 0]"] ;
178 -> 180 ;
181 [label="num_procedures <= 0.688\ngini = 0.498\nsamples = 1354\nvalue = [721, 633]"] ;
5 -> 181 ;
182 [label="num_lab_procedures <= -1.908\ngini = 0.494\nsamples = 1027\nvalue = [571, 456]"] ;
181 -> 182 ;
183 [label="admission_type_id_1 <= 0.5\ngini = 0.32\nsamples = 40\nvalue = [32, 8]"] ;
182 -> 183 ;
184 [label="gini = 0.0\nsamples = 16\nvalue = [16, 0]"] ;
183 -> 184 ;
185 [label="num_medications <= -0.616\ngini = 0.444\nsamples = 24\nvalue = [16, 8]"] ;
183 -> 185 ;
186 [label="num_medications <= -1.604\ngini = 0.153\nsamples = 12\nvalue = [11, 1]"] ;
185 -> 186 ;
187 [label="gini = 0.0\nsamples = 1\nvalue = [0, 1]"] ;
186 -> 187 ;
188 [label="gini = 0.0\nsamples = 11\nvalue = [11, 0]"] ;
186 -> 188 ;
189 [label="num_meds_total <= 0.341\ngini = 0.486\nsamples = 12\nvalue = [5, 7]"] ;
185 -> 189 ;
190 [label="imputed_age <= -0.366\ngini = 0.444\nsamples = 6\nvalue = [4, 2]"] ;
189 -> 190 ;
191 [label="num_lab_procedures <= -2.112\ngini = 0.444\nsamples = 3\nvalue = [1, 2]"] ;
190 -> 191 ;
192 [label="gini = 0.0\nsamples = 1\nvalue = [1, 0]"] ;
191 -> 192 ;
193 [label="gini = 0.0\nsamples = 2\nvalue = [0, 2]"] ;
191 -> 193 ;
194 [label="gini = 0.0\nsamples = 3\nvalue = [3, 0]"] ;
190 -> 194 ;
195 [label="imputed_age <= -0.993\ngini = 0.278\nsamples = 6\nvalue = [1, 5]"] ;
189 -> 195 ;
196 [label="gini = 0.0\nsamples = 1\nvalue = [1, 0]"] ;
195 -> 196 ;
197 [label="gini = 0.0\nsamples = 5\nvalue = [0, 5]"] ;
195 -> 197 ;
198 [label="num_lab_procedures <= 1.201\ngini = 0.496\nsamples = 987\nvalue = [539, 448]"] ;
182 -> 198 ;
199 [label="num_enc_to_date <= 0.032\ngini = 0.498\nsamples = 881\nvalue = [466, 415]"] ;
198 -> 199 ;
200 [label="discharge_disposition_id_28 <= 0.5\ngini = 0.496\nsamples = 814\nvalue = [443, 371]"] ;
199 -> 200 ;
201 [label="race_Hispanic <= 0.5\ngini = 0.495\nsamples = 807\nvalue = [443, 364]"] ;
200 -> 201 ;
202 [label="num_lab_procedures <= 0.232\ngini = 0.494\nsamples = 796\nvalue = [441, 355]"] ;
201 -> 202 ;
203 [label="num_procedures <= -0.489\ngini = 0.484\nsamples = 474\nvalue = [280, 194]"] ;
202 -> 203 ;
204 [label="num_medications <= 0.064\ngini = 0.497\nsamples = 253\nvalue = [137, 116]"] ;
203 -> 204 ;
205 [label="A1Cresult_>8 <= 0.5\ngini = 0.482\nsamples = 193\nvalue = [115, 78]"] ;
204 -> 205 ;
206 [label="discharge_disposition_id_6 <= 0.5\ngini = 0.47\nsamples = 180\nvalue = [112, 68]"] ;
205 -> 206 ;
207 [label="num_meds_total <= -0.744\ngini = 0.404\nsamples = 89\nvalue = [64, 25]"] ;
206 -> 207 ;
208 [label="num_medications <= -1.728\ngini = 0.291\nsamples = 34\nvalue = [28, 6]"] ;
207 -> 208 ;
209 [label="gini = 0.0\nsamples = 1\nvalue = [0, 1]"] ;
208 -> 209 ;
210 [label="discharge_disposition_id_23 <= 0.5\ngini = 0.257\nsamples = 33\nvalue = [28, 5]"] ;
208 -> 210 ;
211 [label="time_in_hospital <= 1.55\ngini = 0.219\nsamples = 32\nvalue = [28, 4]"] ;
210 -> 211 ;
212 [label="imputed_age <= -0.993\ngini = 0.175\nsamples = 31\nvalue = [28, 3]"] ;
211 -> 212 ;
213 [label="number_diagnoses <= 0.047\ngini = 0.408\nsamples = 7\nvalue = [5, 2]"] ;
212 -> 213 ;
214 [label="gini = 0.0\nsamples = 5\nvalue = [5, 0]"] ;
213 -> 214 ;
215 [label="gini = 0.0\nsamples = 2\nvalue = [0, 2]"] ;
213 -> 215 ;
216 [label="num_medications <= -1.172\ngini = 0.08\nsamples = 24\nvalue = [23, 1]"] ;
212 -> 216 ;
217 [label="gender_Male <= 0.5\ngini = 0.278\nsamples = 6\nvalue = [5, 1]"] ;
216 -> 217 ;
218 [label="time_in_hospital <= -0.635\ngini = 0.5\nsamples = 2\nvalue = [1, 1]"] ;
217 -> 218 ;
219 [label="gini = 0.0\nsamples = 1\nvalue = [0, 1]"] ;
218 -> 219 ;
220 [label="gini = 0.0\nsamples = 1\nvalue = [1, 0]"] ;
218 -> 220 ;
221 [label="gini = 0.0\nsamples = 4\nvalue = [4, 0]"] ;
217 -> 221 ;
222 [label="gini = 0.0\nsamples = 18\nvalue = [18, 0]"] ;
216 -> 222 ;
223 [label="gini = 0.0\nsamples = 1\nvalue = [0, 1]"] ;
211 -> 223 ;
224 [label="gini = 0.0\nsamples = 1\nvalue = [0, 1]"] ;
210 -> 224 ;
225 [label="num_lab_procedures <= -0.125\ngini = 0.452\nsamples = 55\nvalue = [36, 19]"] ;
207 -> 225 ;
226 [label="time_in_hospital <= -0.635\ngini = 0.489\nsamples = 40\nvalue = [23, 17]"] ;
225 -> 226 ;
227 [label="admission_source_id_7 <= 0.5\ngini = 0.444\nsamples = 27\nvalue = [18, 9]"] ;
226 -> 227 ;
228 [label="admission_type_id_3 <= 0.5\ngini = 0.278\nsamples = 12\nvalue = [10, 2]"] ;
227 -> 228 ;
229 [label="num_med_changes <= 0.435\ngini = 0.165\nsamples = 11\nvalue = [10, 1]"] ;
228 -> 229 ;
230 [label="gini = 0.0\nsamples = 9\nvalue = [9, 0]"] ;
229 -> 230 ;
231 [label="max_glu_serum_None <= 0.5\ngini = 0.5\nsamples = 2\nvalue = [1, 1]"] ;
229 -> 231 ;
232 [label="gini = 0.0\nsamples = 1\nvalue = [0, 1]"] ;
231 -> 232 ;
233 [label="gini = 0.0\nsamples = 1\nvalue = [1, 0]"] ;
231 -> 233 ;
234 [label="gini = 0.0\nsamples = 1\nvalue = [0, 1]"] ;
228 -> 234 ;
235 [label="num_medications <= -1.172\ngini = 0.498\nsamples = 15\nvalue = [8, 7]"] ;
227 -> 235 ;
236 [label="admission_type_id_1 <= 0.5\ngini = 0.32\nsamples = 5\nvalue = [1, 4]"] ;
235 -> 236 ;
237 [label="gini = 0.0\nsamples = 1\nvalue = [1, 0]"] ;
236 -> 237 ;
238 [label="gini = 0.0\nsamples = 4\nvalue = [0, 4]"] ;
236 -> 238 ;
239 [label="imputed_age <= 0.261\ngini = 0.42\nsamples = 10\nvalue = [7, 3]"] ;
235 -> 239 ;
240 [label="number_diagnoses <= 0.563\ngini = 0.444\nsamples = 3\nvalue = [1, 2]"] ;
239 -> 240 ;
241 [label="gini = 0.0\nsamples = 2\nvalue = [0, 2]"] ;
240 -> 241 ;
242 [label="gini = 0.0\nsamples = 1\nvalue = [1, 0]"] ;
240 -> 242 ;
243 [label="discharge_disposition_id_7 <= 0.5\ngini = 0.245\nsamples = 7\nvalue = [6, 1]"] ;
239 -> 243 ;
244 [label="gini = 0.0\nsamples = 6\nvalue = [6, 0]"] ;
243 -> 244 ;
245 [label="gini = 0.0\nsamples = 1\nvalue = [0, 1]"] ;
243 -> 245 ;
246 [label="time_in_hospital <= 0.037\ngini = 0.473\nsamples = 13\nvalue = [5, 8]"] ;
226 -> 246 ;
247 [label="gini = 0.0\nsamples = 5\nvalue = [0, 5]"] ;
246 -> 247 ;
248 [label="number_diagnoses <= 0.563\ngini = 0.469\nsamples = 8\nvalue = [5, 3]"] ;
246 -> 248 ;
249 [label="gini = 0.0\nsamples = 3\nvalue = [3, 0]"] ;
248 -> 249 ;
250 [label="num_lab_procedures <= -0.303\ngini = 0.48\nsamples = 5\nvalue = [2, 3]"] ;
248 -> 250 ;
251 [label="time_in_hospital <= 0.373\ngini = 0.444\nsamples = 3\nvalue = [2, 1]"] ;
250 -> 251 ;
252 [label="gini = 0.0\nsamples = 1\nvalue = [0, 1]"] ;
251 -> 252 ;
253 [label="gini = 0.0\nsamples = 2\nvalue = [2, 0]"] ;
251 -> 253 ;
254 [label="gini = 0.0\nsamples = 2\nvalue = [0, 2]"] ;
250 -> 254 ;
255 [label="imputed_age <= -0.993\ngini = 0.231\nsamples = 15\nvalue = [13, 2]"] ;
225 -> 255 ;
256 [label="gini = 0.0\nsamples = 1\nvalue = [0, 1]"] ;
255 -> 256 ;
257 [label="number_diagnoses <= -0.469\ngini = 0.133\nsamples = 14\nvalue = [13, 1]"] ;
255 -> 257 ;
258 [label="gender_Female <= 0.5\ngini = 0.444\nsamples = 3\nvalue = [2, 1]"] ;
257 -> 258 ;
259 [label="gini = 0.0\nsamples = 1\nvalue = [0, 1]"] ;
258 -> 259 ;
260 [label="gini = 0.0\nsamples = 2\nvalue = [2, 0]"] ;
258 -> 260 ;
261 [label="gini = 0.0\nsamples = 11\nvalue = [11, 0]"] ;
257 -> 261 ;
262 [label="race_AfricanAmerican <= 0.5\ngini = 0.498\nsamples = 91\nvalue = [48, 43]"] ;
206 -> 262 ;
263 [label="num_medications <= -0.307\ngini = 0.485\nsamples = 75\nvalue = [44, 31]"] ;
262 -> 263 ;
264 [label="num_lab_procedures <= -1.348\ngini = 0.497\nsamples = 61\nvalue = [33, 28]"] ;
263 -> 264 ;
265 [label="num_lab_procedures <= -1.857\ngini = 0.32\nsamples = 10\nvalue = [8, 2]"] ;
264 -> 265 ;
266 [label="gini = 0.0\nsamples = 1\nvalue = [0, 1]"] ;
265 -> 266 ;
267 [label="num_lab_procedures <= -1.45\ngini = 0.198\nsamples = 9\nvalue = [8, 1]"] ;
265 -> 267 ;
268 [label="gini = 0.0\nsamples = 6\nvalue = [6, 0]"] ;
267 -> 268 ;
269 [label="time_in_hospital <= 0.037\ngini = 0.444\nsamples = 3\nvalue = [2, 1]"] ;
267 -> 269 ;
270 [label="gini = 0.0\nsamples = 1\nvalue = [0, 1]"] ;
269 -> 270 ;
271 [label="gini = 0.0\nsamples = 2\nvalue = [2, 0]"] ;
269 -> 271 ;
272 [label="time_in_hospital <= -0.299\ngini = 0.5\nsamples = 51\nvalue = [25, 26]"] ;
264 -> 272 ;
273 [label="num_lab_procedures <= -0.379\ngini = 0.484\nsamples = 34\nvalue = [20, 14]"] ;
272 -> 273 ;
274 [label="num_lab_procedures <= -1.297\ngini = 0.408\nsamples = 21\nvalue = [15, 6]"] ;
273 -> 274 ;
275 [label="gini = 0.0\nsamples = 2\nvalue = [0, 2]"] ;
274 -> 275 ;
276 [label="num_medications <= -0.43\ngini = 0.332\nsamples = 19\nvalue = [15, 4]"] ;
274 -> 276 ;
277 [label="admission_source_id_1 <= 0.5\ngini = 0.231\nsamples = 15\nvalue = [13, 2]"] ;
276 -> 277 ;
278 [label="imputed_age <= 0.261\ngini = 0.142\nsamples = 13\nvalue = [12, 1]"] ;
277 -> 278 ;
279 [label="time_in_hospital <= -0.635\ngini = 0.444\nsamples = 3\nvalue = [2, 1]"] ;
278 -> 279 ;
280 [label="gini = 0.0\nsamples = 1\nvalue = [0, 1]"] ;
279 -> 280 ;
281 [label="gini = 0.0\nsamples = 2\nvalue = [2, 0]"] ;
279 -> 281 ;
282 [label="gini = 0.0\nsamples = 10\nvalue = [10, 0]"] ;
278 -> 282 ;
283 [label="num_lab_procedures <= -0.66\ngini = 0.5\nsamples = 2\nvalue = [1, 1]"] ;
277 -> 283 ;
284 [label="gini = 0.0\nsamples = 1\nvalue = [0, 1]"] ;
283 -> 284 ;
285 [label="gini = 0.0\nsamples = 1\nvalue = [1, 0]"] ;
283 -> 285 ;
286 [label="number_diagnoses <= 0.563\ngini = 0.5\nsamples = 4\nvalue = [2, 2]"] ;
276 -> 286 ;
287 [label="gini = 0.0\nsamples = 2\nvalue = [2, 0]"] ;
286 -> 287 ;
288 [label="gini = 0.0\nsamples = 2\nvalue = [0, 2]"] ;
286 -> 288 ;
289 [label="admission_type_id_3 <= 0.5\ngini = 0.473\nsamples = 13\nvalue = [5, 8]"] ;
273 -> 289 ;
290 [label="num_lab_procedures <= -0.048\ngini = 0.397\nsamples = 11\nvalue = [3, 8]"] ;
289 -> 290 ;
291 [label="gini = 0.0\nsamples = 6\nvalue = [0, 6]"] ;
290 -> 291 ;
292 [label="num_lab_procedures <= 0.054\ngini = 0.48\nsamples = 5\nvalue = [3, 2]"] ;
290 -> 292 ;
293 [label="gini = 0.0\nsamples = 2\nvalue = [2, 0]"] ;
292 -> 293 ;
294 [label="admission_type_id_1 <= 0.5\ngini = 0.444\nsamples = 3\nvalue = [1, 2]"] ;
292 -> 294 ;
295 [label="gini = 0.0\nsamples = 1\nvalue = [1, 0]"] ;
294 -> 295 ;
296 [label="gini = 0.0\nsamples = 2\nvalue = [0, 2]"] ;
294 -> 296 ;
297 [label="gini = 0.0\nsamples = 2\nvalue = [2, 0]"] ;
289 -> 297 ;
298 [label="num_lab_procedures <= -0.711\ngini = 0.415\nsamples = 17\nvalue = [5, 12]"] ;
272 -> 298 ;
299 [label="gini = 0.0\nsamples = 8\nvalue = [0, 8]"] ;
298 -> 299 ;
300 [label="num_medications <= -0.677\ngini = 0.494\nsamples = 9\nvalue = [5, 4]"] ;
298 -> 300 ;
301 [label="num_meds_total <= -0.744\ngini = 0.444\nsamples = 6\nvalue = [2, 4]"] ;
300 -> 301 ;
302 [label="admission_type_id_3 <= 0.5\ngini = 0.444\nsamples = 3\nvalue = [2, 1]"] ;
301 -> 302 ;
303 [label="gini = 0.0\nsamples = 2\nvalue = [2, 0]"] ;
302 -> 303 ;
304 [label="gini = 0.0\nsamples = 1\nvalue = [0, 1]"] ;
302 -> 304 ;
305 [label="gini = 0.0\nsamples = 3\nvalue = [0, 3]"] ;
301 -> 305 ;
306 [label="gini = 0.0\nsamples = 3\nvalue = [3, 0]"] ;
300 -> 306 ;
307 [label="num_lab_procedures <= -1.322\ngini = 0.337\nsamples = 14\nvalue = [11, 3]"] ;
263 -> 307 ;
308 [label="gini = 0.0\nsamples = 1\nvalue = [0, 1]"] ;
307 -> 308 ;
309 [label="num_meds_total <= -0.744\ngini = 0.26\nsamples = 13\nvalue = [11, 2]"] ;
307 -> 309 ;
310 [label="admission_source_id_7 <= 0.5\ngini = 0.5\nsamples = 2\nvalue = [1, 1]"] ;
309 -> 310 ;
311 [label="gini = 0.0\nsamples = 1\nvalue = [1, 0]"] ;
310 -> 311 ;
312 [label="gini = 0.0\nsamples = 1\nvalue = [0, 1]"] ;
310 -> 312 ;
313 [label="num_lab_procedures <= 0.028\ngini = 0.165\nsamples = 11\nvalue = [10, 1]"] ;
309 -> 313 ;
314 [label="gini = 0.0\nsamples = 7\nvalue = [7, 0]"] ;
313 -> 314 ;
315 [label="gender_Female <= 0.5\ngini = 0.375\nsamples = 4\nvalue = [3, 1]"] ;
313 -> 315 ;
316 [label="gini = 0.0\nsamples = 3\nvalue = [3, 0]"] ;
315 -> 316 ;
317 [label="gini = 0.0\nsamples = 1\nvalue = [0, 1]"] ;
315 -> 317 ;
318 [label="imputed_age <= -1.306\ngini = 0.375\nsamples = 16\nvalue = [4, 12]"] ;
262 -> 318 ;
319 [label="gini = 0.0\nsamples = 1\nvalue = [1, 0]"] ;
318 -> 319 ;
320 [label="num_medications <= -0.43\ngini = 0.32\nsamples = 15\nvalue = [3, 12]"] ;
318 -> 320 ;
321 [label="number_diagnoses <= 0.305\ngini = 0.49\nsamples = 7\nvalue = [3, 4]"] ;
320 -> 321 ;
322 [label="gini = 0.0\nsamples = 3\nvalue = [0, 3]"] ;
321 -> 322 ;
323 [label="num_medications <= -0.616\ngini = 0.375\nsamples = 4\nvalue = [3, 1]"] ;
321 -> 323 ;
324 [label="gini = 0.0\nsamples = 1\nvalue = [0, 1]"] ;
323 -> 324 ;
325 [label="gini = 0.0\nsamples = 3\nvalue = [3, 0]"] ;
323 -> 325 ;
326 [label="gini = 0.0\nsamples = 8\nvalue = [0, 8]"] ;
320 -> 326 ;
327 [label="race_Caucasian <= 0.5\ngini = 0.355\nsamples = 13\nvalue = [3, 10]"] ;
205 -> 327 ;
328 [label="gini = 0.0\nsamples = 2\nvalue = [2, 0]"] ;
327 -> 328 ;
329 [label="discharge_disposition_id_6 <= 0.5\ngini = 0.165\nsamples = 11\nvalue = [1, 10]"] ;
327 -> 329 ;
330 [label="gini = 0.0\nsamples = 10\nvalue = [0, 10]"] ;
329 -> 330 ;
331 [label="gini = 0.0\nsamples = 1\nvalue = [1, 0]"] ;
329 -> 331 ;
332 [label="time_in_hospital <= 0.037\ngini = 0.464\nsamples = 60\nvalue = [22, 38]"] ;
204 -> 332 ;
333 [label="num_lab_procedures <= -1.603\ngini = 0.337\nsamples = 28\nvalue = [6, 22]"] ;
332 -> 333 ;
334 [label="imputed_age <= -0.052\ngini = 0.375\nsamples = 4\nvalue = [3, 1]"] ;
333 -> 334 ;
335 [label="gini = 0.0\nsamples = 1\nvalue = [0, 1]"] ;
334 -> 335 ;
336 [label="gini = 0.0\nsamples = 3\nvalue = [3, 0]"] ;
334 -> 336 ;
337 [label="max_glu_serum_>300 <= 0.5\ngini = 0.219\nsamples = 24\nvalue = [3, 21]"] ;
333 -> 337 ;
338 [label="num_lab_procedures <= 0.181\ngini = 0.159\nsamples = 23\nvalue = [2, 21]"] ;
337 -> 338 ;
339 [label="num_lab_procedures <= 0.13\ngini = 0.087\nsamples = 22\nvalue = [1, 21]"] ;
338 -> 339 ;
340 [label="gini = 0.0\nsamples = 19\nvalue = [0, 19]"] ;
339 -> 340 ;
341 [label="num_medications <= 0.249\ngini = 0.444\nsamples = 3\nvalue = [1, 2]"] ;
339 -> 341 ;
342 [label="gini = 0.0\nsamples = 1\nvalue = [1, 0]"] ;
341 -> 342 ;
343 [label="gini = 0.0\nsamples = 2\nvalue = [0, 2]"] ;
341 -> 343 ;
344 [label="gini = 0.0\nsamples = 1\nvalue = [1, 0]"] ;
338 -> 344 ;
345 [label="gini = 0.0\nsamples = 1\nvalue = [1, 0]"] ;
337 -> 345 ;
346 [label="change_No <= 0.5\ngini = 0.5\nsamples = 32\nvalue = [16, 16]"] ;
332 -> 346 ;
347 [label="num_lab_procedures <= -1.195\ngini = 0.415\nsamples = 17\nvalue = [12, 5]"] ;
346 -> 347 ;
348 [label="gini = 0.0\nsamples = 2\nvalue = [0, 2]"] ;
347 -> 348 ;
349 [label="discharge_disposition_id_18 <= 0.5\ngini = 0.32\nsamples = 15\nvalue = [12, 3]"] ;
347 -> 349 ;
350 [label="num_medications <= 0.558\ngini = 0.245\nsamples = 14\nvalue = [12, 2]"] ;
349 -> 350 ;
351 [label="admission_type_id_1 <= 0.5\ngini = 0.375\nsamples = 8\nvalue = [6, 2]"] ;
350 -> 351 ;
352 [label="gini = 0.0\nsamples = 1\nvalue = [0, 1]"] ;
351 -> 352 ;
353 [label="race_Caucasian <= 0.5\ngini = 0.245\nsamples = 7\nvalue = [6, 1]"] ;
351 -> 353 ;
354 [label="num_med_changes <= 0.435\ngini = 0.444\nsamples = 3\nvalue = [2, 1]"] ;
353 -> 354 ;
355 [label="num_meds_total <= 1.426\ngini = 0.5\nsamples = 2\nvalue = [1, 1]"] ;
354 -> 355 ;
356 [label="gini = 0.0\nsamples = 1\nvalue = [0, 1]"] ;
355 -> 356 ;
357 [label="gini = 0.0\nsamples = 1\nvalue = [1, 0]"] ;
355 -> 357 ;
358 [label="gini = 0.0\nsamples = 1\nvalue = [1, 0]"] ;
354 -> 358 ;
359 [label="gini = 0.0\nsamples = 4\nvalue = [4, 0]"] ;
353 -> 359 ;
360 [label="gini = 0.0\nsamples = 6\nvalue = [6, 0]"] ;
350 -> 360 ;
361 [label="gini = 0.0\nsamples = 1\nvalue = [0, 1]"] ;
349 -> 361 ;
362 [label="imputed_age <= 0.261\ngini = 0.391\nsamples = 15\nvalue = [4, 11]"] ;
346 -> 362 ;
363 [label="gini = 0.0\nsamples = 7\nvalue = [0, 7]"] ;
362 -> 363 ;
364 [label="time_in_hospital <= 1.214\ngini = 0.5\nsamples = 8\nvalue = [4, 4]"] ;
362 -> 364 ;
365 [label="num_lab_procedures <= -0.354\ngini = 0.444\nsamples = 6\nvalue = [4, 2]"] ;
364 -> 365 ;
366 [label="num_medications <= 0.744\ngini = 0.444\nsamples = 3\nvalue = [1, 2]"] ;
365 -> 366 ;
367 [label="gini = 0.0\nsamples = 2\nvalue = [0, 2]"] ;
366 -> 367 ;
368 [label="gini = 0.0\nsamples = 1\nvalue = [1, 0]"] ;
366 -> 368 ;
369 [label="gini = 0.0\nsamples = 3\nvalue = [3, 0]"] ;
365 -> 369 ;
370 [label="gini = 0.0\nsamples = 2\nvalue = [0, 2]"] ;
364 -> 370 ;
371 [label="num_medications <= 0.435\ngini = 0.457\nsamples = 221\nvalue = [143, 78]"] ;
203 -> 371 ;
372 [label="time_in_hospital <= -0.971\ngini = 0.483\nsamples = 154\nvalue = [91, 63]"] ;
371 -> 372 ;
373 [label="gini = 0.0\nsamples = 13\nvalue = [13, 0]"] ;
372 -> 373 ;
374 [label="num_lab_procedures <= 0.079\ngini = 0.494\nsamples = 141\nvalue = [78, 63]"] ;
372 -> 374 ;
375 [label="race_unknown <= 0.5\ngini = 0.483\nsamples = 125\nvalue = [74, 51]"] ;
374 -> 375 ;
376 [label="race_Other <= 0.5\ngini = 0.477\nsamples = 122\nvalue = [74, 48]"] ;
375 -> 376 ;
377 [label="num_lab_procedures <= -0.889\ngini = 0.484\nsamples = 117\nvalue = [69, 48]"] ;
376 -> 377 ;
378 [label="time_in_hospital <= 1.382\ngini = 0.498\nsamples = 36\nvalue = [17, 19]"] ;
377 -> 378 ;
379 [label="time_in_hospital <= 0.373\ngini = 0.482\nsamples = 32\nvalue = [13, 19]"] ;
378 -> 379 ;
380 [label="number_diagnoses <= -0.469\ngini = 0.499\nsamples = 27\nvalue = [13, 14]"] ;
379 -> 380 ;
381 [label="diabetesMed_No <= 0.5\ngini = 0.278\nsamples = 6\nvalue = [5, 1]"] ;
380 -> 381 ;
382 [label="gini = 0.0\nsamples = 5\nvalue = [5, 0]"] ;
381 -> 382 ;
383 [label="gini = 0.0\nsamples = 1\nvalue = [0, 1]"] ;
381 -> 383 ;
384 [label="imputed_age <= 0.888\ngini = 0.472\nsamples = 21\nvalue = [8, 13]"] ;
380 -> 384 ;
385 [label="change_Ch <= 0.5\ngini = 0.375\nsamples = 16\nvalue = [4, 12]"] ;
384 -> 385 ;
386 [label="admission_type_id_3 <= 0.5\ngini = 0.165\nsamples = 11\nvalue = [1, 10]"] ;
385 -> 386 ;
387 [label="gini = 0.0\nsamples = 9\nvalue = [0, 9]"] ;
386 -> 387 ;
388 [label="diabetesMed_Yes <= 0.5\ngini = 0.5\nsamples = 2\nvalue = [1, 1]"] ;
386 -> 388 ;
389 [label="gini = 0.0\nsamples = 1\nvalue = [1, 0]"] ;
388 -> 389 ;
390 [label="gini = 0.0\nsamples = 1\nvalue = [0, 1]"] ;
388 -> 390 ;
391 [label="admission_type_id_5 <= 0.5\ngini = 0.48\nsamples = 5\nvalue = [3, 2]"] ;
385 -> 391 ;
392 [label="time_in_hospital <= -0.635\ngini = 0.375\nsamples = 4\nvalue = [3, 1]"] ;
391 -> 392 ;
393 [label="gini = 0.0\nsamples = 1\nvalue = [0, 1]"] ;
392 -> 393 ;
394 [label="gini = 0.0\nsamples = 3\nvalue = [3, 0]"] ;
392 -> 394 ;
395 [label="gini = 0.0\nsamples = 1\nvalue = [0, 1]"] ;
391 -> 395 ;
396 [label="admission_source_id_7 <= 0.5\ngini = 0.32\nsamples = 5\nvalue = [4, 1]"] ;
384 -> 396 ;
397 [label="gini = 0.0\nsamples = 4\nvalue = [4, 0]"] ;
396 -> 397 ;
398 [label="gini = 0.0\nsamples = 1\nvalue = [0, 1]"] ;
396 -> 398 ;
399 [label="gini = 0.0\nsamples = 5\nvalue = [0, 5]"] ;
379 -> 399 ;
400 [label="gini = 0.0\nsamples = 4\nvalue = [4, 0]"] ;
378 -> 400 ;
401 [label="time_in_hospital <= 2.222\ngini = 0.46\nsamples = 81\nvalue = [52, 29]"] ;
377 -> 401 ;
402 [label="discharge_disposition_id_15 <= 0.5\ngini = 0.45\nsamples = 79\nvalue = [52, 27]"] ;
401 -> 402 ;
403 [label="discharge_disposition_id_7 <= 0.5\ngini = 0.444\nsamples = 78\nvalue = [52, 26]"] ;
402 -> 403 ;
404 [label="num_lab_procedures <= -0.583\ngini = 0.439\nsamples = 77\nvalue = [52, 25]"] ;
403 -> 404 ;
405 [label="number_diagnoses <= -0.469\ngini = 0.278\nsamples = 18\nvalue = [15, 3]"] ;
404 -> 405 ;
406 [label="admission_source_id_7 <= 0.5\ngini = 0.444\nsamples = 3\nvalue = [1, 2]"] ;
405 -> 406 ;
407 [label="gini = 0.0\nsamples = 2\nvalue = [0, 2]"] ;
406 -> 407 ;
408 [label="gini = 0.0\nsamples = 1\nvalue = [1, 0]"] ;
406 -> 408 ;
409 [label="race_Caucasian <= 0.5\ngini = 0.124\nsamples = 15\nvalue = [14, 1]"] ;
405 -> 409 ;
410 [label="imputed_age <= 0.888\ngini = 0.375\nsamples = 4\nvalue = [3, 1]"] ;
409 -> 410 ;
411 [label="gini = 0.0\nsamples = 3\nvalue = [3, 0]"] ;
410 -> 411 ;
412 [label="gini = 0.0\nsamples = 1\nvalue = [0, 1]"] ;
410 -> 412 ;
413 [label="gini = 0.0\nsamples = 11\nvalue = [11, 0]"] ;
409 -> 413 ;
414 [label="num_lab_procedures <= -0.226\ngini = 0.468\nsamples = 59\nvalue = [37, 22]"] ;
404 -> 414 ;
415 [label="time_in_hospital <= 0.373\ngini = 0.496\nsamples = 35\nvalue = [19, 16]"] ;
414 -> 415 ;
416 [label="num_medications <= -0.986\ngini = 0.475\nsamples = 18\nvalue = [7, 11]"] ;
415 -> 416 ;
417 [label="num_lab_procedures <= -0.328\ngini = 0.375\nsamples = 4\nvalue = [3, 1]"] ;
416 -> 417 ;
418 [label="gini = 0.0\nsamples = 3\nvalue = [3, 0]"] ;
417 -> 418 ;
419 [label="gini = 0.0\nsamples = 1\nvalue = [0, 1]"] ;
417 -> 419 ;
420 [label="num_lab_procedures <= -0.277\ngini = 0.408\nsamples = 14\nvalue = [4, 10]"] ;
416 -> 420 ;
421 [label="number_diagnoses <= 0.563\ngini = 0.298\nsamples = 11\nvalue = [2, 9]"] ;
420 -> 421 ;
422 [label="admission_type_id_2 <= 0.5\ngini = 0.48\nsamples = 5\nvalue = [2, 3]"] ;
421 -> 422 ;
423 [label="num_meds_total <= -0.744\ngini = 0.375\nsamples = 4\nvalue = [1, 3]"] ;
422 -> 423 ;
424 [label="gini = 0.0\nsamples = 1\nvalue = [1, 0]"] ;
423 -> 424 ;
425 [label="gini = 0.0\nsamples = 3\nvalue = [0, 3]"] ;
423 -> 425 ;
426 [label="gini = 0.0\nsamples = 1\nvalue = [1, 0]"] ;
422 -> 426 ;
427 [label="gini = 0.0\nsamples = 6\nvalue = [0, 6]"] ;
421 -> 427 ;
428 [label="imputed_age <= 0.888\ngini = 0.444\nsamples = 3\nvalue = [2, 1]"] ;
420 -> 428 ;
429 [label="gini = 0.0\nsamples = 2\nvalue = [2, 0]"] ;
428 -> 429 ;
430 [label="gini = 0.0\nsamples = 1\nvalue = [0, 1]"] ;
428 -> 430 ;
431 [label="imputed_age <= 0.888\ngini = 0.415\nsamples = 17\nvalue = [12, 5]"] ;
415 -> 431 ;
432 [label="imputed_age <= 0.261\ngini = 0.245\nsamples = 14\nvalue = [12, 2]"] ;
431 -> 432 ;
433 [label="gini = 0.0\nsamples = 8\nvalue = [8, 0]"] ;
432 -> 433 ;
434 [label="admission_source_id_1 <= 0.5\ngini = 0.444\nsamples = 6\nvalue = [4, 2]"] ;
432 -> 434 ;
435 [label="gini = 0.0\nsamples = 3\nvalue = [3, 0]"] ;
434 -> 435 ;
436 [label="admission_type_id_1 <= 0.5\ngini = 0.444\nsamples = 3\nvalue = [1, 2]"] ;
434 -> 436 ;
437 [label="gini = 0.0\nsamples = 2\nvalue = [0, 2]"] ;
436 -> 437 ;
438 [label="gini = 0.0\nsamples = 1\nvalue = [1, 0]"] ;
436 -> 438 ;
439 [label="gini = 0.0\nsamples = 3\nvalue = [0, 3]"] ;
431 -> 439 ;
440 [label="time_in_hospital <= 0.709\ngini = 0.375\nsamples = 24\nvalue = [18, 6]"] ;
414 -> 440 ;
441 [label="num_procedures <= 0.1\ngini = 0.255\nsamples = 20\nvalue = [17, 3]"] ;
440 -> 441 ;
442 [label="gini = 0.0\nsamples = 10\nvalue = [10, 0]"] ;
441 -> 442 ;
443 [label="num_meds_total <= 0.341\ngini = 0.42\nsamples = 10\nvalue = [7, 3]"] ;
441 -> 443 ;
444 [label="time_in_hospital <= -0.467\ngini = 0.48\nsamples = 5\nvalue = [2, 3]"] ;
443 -> 444 ;
445 [label="admission_type_id_1 <= 0.5\ngini = 0.444\nsamples = 3\nvalue = [2, 1]"] ;
444 -> 445 ;
446 [label="gini = 0.0\nsamples = 2\nvalue = [2, 0]"] ;
445 -> 446 ;
447 [label="gini = 0.0\nsamples = 1\nvalue = [0, 1]"] ;
445 -> 447 ;
448 [label="gini = 0.0\nsamples = 2\nvalue = [0, 2]"] ;
444 -> 448 ;
449 [label="gini = 0.0\nsamples = 5\nvalue = [5, 0]"] ;
443 -> 449 ;
450 [label="admission_source_id_7 <= 0.5\ngini = 0.375\nsamples = 4\nvalue = [1, 3]"] ;
440 -> 450 ;
451 [label="gini = 0.0\nsamples = 1\nvalue = [1, 0]"] ;
450 -> 451 ;
452 [label="gini = 0.0\nsamples = 3\nvalue = [0, 3]"] ;
450 -> 452 ;
453 [label="gini = 0.0\nsamples = 1\nvalue = [0, 1]"] ;
403 -> 453 ;
454 [label="gini = 0.0\nsamples = 1\nvalue = [0, 1]"] ;
402 -> 454 ;
455 [label="gini = 0.0\nsamples = 2\nvalue = [0, 2]"] ;
401 -> 455 ;
456 [label="gini = 0.0\nsamples = 5\nvalue = [5, 0]"] ;
376 -> 456 ;
457 [label="gini = 0.0\nsamples = 3\nvalue = [0, 3]"] ;
375 -> 457 ;
458 [label="num_medications <= -0.183\ngini = 0.375\nsamples = 16\nvalue = [4, 12]"] ;
374 -> 458 ;
459 [label="admission_source_id_1 <= 0.5\ngini = 0.165\nsamples = 11\nvalue = [1, 10]"] ;
458 -> 459 ;
460 [label="gini = 0.0\nsamples = 10\nvalue = [0, 10]"] ;
459 -> 460 ;
461 [label="gini = 0.0\nsamples = 1\nvalue = [1, 0]"] ;
459 -> 461 ;
462 [label="num_medications <= 0.188\ngini = 0.48\nsamples = 5\nvalue = [3, 2]"] ;
458 -> 462 ;
463 [label="gini = 0.0\nsamples = 3\nvalue = [3, 0]"] ;
462 -> 463 ;
464 [label="gini = 0.0\nsamples = 2\nvalue = [0, 2]"] ;
462 -> 464 ;
465 [label="discharge_disposition_id_18 <= 0.5\ngini = 0.348\nsamples = 67\nvalue = [52, 15]"] ;
371 -> 465 ;
466 [label="num_meds_total <= 1.426\ngini = 0.303\nsamples = 59\nvalue = [48, 11]"] ;
465 -> 466 ;
467 [label="time_in_hospital <= -0.971\ngini = 0.241\nsamples = 50\nvalue = [43, 7]"] ;
466 -> 467 ;
468 [label="gini = 0.0\nsamples = 1\nvalue = [0, 1]"] ;
467 -> 468 ;
469 [label="num_med_changes <= 0.435\ngini = 0.215\nsamples = 49\nvalue = [43, 6]"] ;
467 -> 469 ;
470 [label="max_glu_serum_None <= 0.5\ngini = 0.305\nsamples = 32\nvalue = [26, 6]"] ;
469 -> 470 ;
471 [label="gini = 0.0\nsamples = 1\nvalue = [0, 1]"] ;
470 -> 471 ;
472 [label="num_medications <= 0.805\ngini = 0.271\nsamples = 31\nvalue = [26, 5]"] ;
470 -> 472 ;
473 [label="gini = 0.0\nsamples = 11\nvalue = [11, 0]"] ;
472 -> 473 ;
474 [label="num_medications <= 1.176\ngini = 0.375\nsamples = 20\nvalue = [15, 5]"] ;
472 -> 474 ;
475 [label="discharge_disposition_id_6 <= 0.5\ngini = 0.5\nsamples = 8\nvalue = [4, 4]"] ;
474 -> 475 ;
476 [label="gini = 0.0\nsamples = 2\nvalue = [2, 0]"] ;
475 -> 476 ;
477 [label="imputed_age <= -0.366\ngini = 0.444\nsamples = 6\nvalue = [2, 4]"] ;
475 -> 477 ;
478 [label="gini = 0.0\nsamples = 1\nvalue = [1, 0]"] ;
477 -> 478 ;
479 [label="number_diagnoses <= -0.469\ngini = 0.32\nsamples = 5\nvalue = [1, 4]"] ;
477 -> 479 ;
480 [label="gini = 0.0\nsamples = 1\nvalue = [1, 0]"] ;
479 -> 480 ;
481 [label="gini = 0.0\nsamples = 4\nvalue = [0, 4]"] ;
479 -> 481 ;
482 [label="imputed_age <= 0.888\ngini = 0.153\nsamples = 12\nvalue = [11, 1]"] ;
474 -> 482 ;
483 [label="gini = 0.0\nsamples = 11\nvalue = [11, 0]"] ;
482 -> 483 ;
484 [label="gini = 0.0\nsamples = 1\nvalue = [0, 1]"] ;
482 -> 484 ;
485 [label="gini = 0.0\nsamples = 17\nvalue = [17, 0]"] ;
469 -> 485 ;
486 [label="num_lab_procedures <= -0.481\ngini = 0.494\nsamples = 9\nvalue = [5, 4]"] ;
466 -> 486 ;
487 [label="gini = 0.0\nsamples = 4\nvalue = [4, 0]"] ;
486 -> 487 ;
488 [label="num_lab_procedures <= 0.003\ngini = 0.32\nsamples = 5\nvalue = [1, 4]"] ;
486 -> 488 ;
489 [label="gini = 0.0\nsamples = 4\nvalue = [0, 4]"] ;
488 -> 489 ;
490 [label="gini = 0.0\nsamples = 1\nvalue = [1, 0]"] ;
488 -> 490 ;
491 [label="change_Ch <= 0.5\ngini = 0.5\nsamples = 8\nvalue = [4, 4]"] ;
465 -> 491 ;
492 [label="num_medications <= 2.535\ngini = 0.32\nsamples = 5\nvalue = [4, 1]"] ;
491 -> 492 ;
493 [label="gini = 0.0\nsamples = 4\nvalue = [4, 0]"] ;
492 -> 493 ;
494 [label="gini = 0.0\nsamples = 1\nvalue = [0, 1]"] ;
492 -> 494 ;
495 [label="gini = 0.0\nsamples = 3\nvalue = [0, 3]"] ;
491 -> 495 ;
496 [label="num_procedures <= -0.489\ngini = 0.5\nsamples = 322\nvalue = [161, 161]"] ;
202 -> 496 ;
497 [label="num_medications <= 0.311\ngini = 0.491\nsamples = 199\nvalue = [113, 86]"] ;
496 -> 497 ;
498 [label="admission_type_id_2 <= 0.5\ngini = 0.472\nsamples = 160\nvalue = [99, 61]"] ;
497 -> 498 ;
499 [label="max_glu_serum_Norm <= 0.5\ngini = 0.46\nsamples = 148\nvalue = [95, 53]"] ;
498 -> 499 ;
500 [label="A1Cresult_>7 <= 0.5\ngini = 0.455\nsamples = 146\nvalue = [95, 51]"] ;
499 -> 500 ;
501 [label="discharge_disposition_id_7 <= 0.5\ngini = 0.441\nsamples = 134\nvalue = [90, 44]"] ;
500 -> 501 ;
502 [label="diabetesMed_Yes <= 0.5\ngini = 0.453\nsamples = 127\nvalue = [83, 44]"] ;
501 -> 502 ;
503 [label="num_medications <= -0.677\ngini = 0.381\nsamples = 43\nvalue = [32, 11]"] ;
502 -> 503 ;
504 [label="num_lab_procedures <= 0.436\ngini = 0.476\nsamples = 23\nvalue = [14, 9]"] ;
503 -> 504 ;
505 [label="discharge_disposition_id_18 <= 0.5\ngini = 0.469\nsamples = 8\nvalue = [3, 5]"] ;
504 -> 505 ;
506 [label="discharge_disposition_id_4 <= 0.5\ngini = 0.278\nsamples = 6\nvalue = [1, 5]"] ;
505 -> 506 ;
507 [label="gini = 0.0\nsamples = 5\nvalue = [0, 5]"] ;
506 -> 507 ;
508 [label="gini = 0.0\nsamples = 1\nvalue = [1, 0]"] ;
506 -> 508 ;
509 [label="gini = 0.0\nsamples = 2\nvalue = [2, 0]"] ;
505 -> 509 ;
510 [label="discharge_disposition_id_13 <= 0.5\ngini = 0.391\nsamples = 15\nvalue = [11, 4]"] ;
504 -> 510 ;
511 [label="gender_Male <= 0.5\ngini = 0.337\nsamples = 14\nvalue = [11, 3]"] ;
510 -> 511 ;
512 [label="num_medications <= -1.419\ngini = 0.469\nsamples = 8\nvalue = [5, 3]"] ;
511 -> 512 ;
513 [label="gini = 0.0\nsamples = 1\nvalue = [0, 1]"] ;
512 -> 513 ;
514 [label="imputed_age <= 0.888\ngini = 0.408\nsamples = 7\nvalue = [5, 2]"] ;
512 -> 514 ;
515 [label="imputed_age <= -0.679\ngini = 0.5\nsamples = 4\nvalue = [2, 2]"] ;
514 -> 515 ;
516 [label="gini = 0.0\nsamples = 1\nvalue = [1, 0]"] ;
515 -> 516 ;
517 [label="race_unknown <= 0.5\ngini = 0.444\nsamples = 3\nvalue = [1, 2]"] ;
515 -> 517 ;
518 [label="gini = 0.0\nsamples = 2\nvalue = [0, 2]"] ;
517 -> 518 ;
519 [label="gini = 0.0\nsamples = 1\nvalue = [1, 0]"] ;
517 -> 519 ;
520 [label="gini = 0.0\nsamples = 3\nvalue = [3, 0]"] ;
514 -> 520 ;
521 [label="gini = 0.0\nsamples = 6\nvalue = [6, 0]"] ;
511 -> 521 ;
522 [label="gini = 0.0\nsamples = 1\nvalue = [0, 1]"] ;
510 -> 522 ;
523 [label="admission_source_id_3 <= 0.5\ngini = 0.18\nsamples = 20\nvalue = [18, 2]"] ;
503 -> 523 ;
524 [label="race_AfricanAmerican <= 0.5\ngini = 0.1\nsamples = 19\nvalue = [18, 1]"] ;
523 -> 524 ;
525 [label="gini = 0.0\nsamples = 16\nvalue = [16, 0]"] ;
524 -> 525 ;
526 [label="number_diagnoses <= 0.305\ngini = 0.444\nsamples = 3\nvalue = [2, 1]"] ;
524 -> 526 ;
527 [label="gini = 0.0\nsamples = 2\nvalue = [2, 0]"] ;
526 -> 527 ;
528 [label="gini = 0.0\nsamples = 1\nvalue = [0, 1]"] ;
526 -> 528 ;
529 [label="gini = 0.0\nsamples = 1\nvalue = [0, 1]"] ;
523 -> 529 ;
530 [label="gender_Female <= 0.5\ngini = 0.477\nsamples = 84\nvalue = [51, 33]"] ;
502 -> 530 ;
531 [label="num_lab_procedures <= 0.997\ngini = 0.401\nsamples = 36\nvalue = [26, 10]"] ;
530 -> 531 ;
532 [label="num_medications <= -0.925\ngini = 0.466\nsamples = 27\nvalue = [17, 10]"] ;
531 -> 532 ;
533 [label="gini = 0.0\nsamples = 3\nvalue = [0, 3]"] ;
532 -> 533 ;
534 [label="A1Cresult_None <= 0.5\ngini = 0.413\nsamples = 24\nvalue = [17, 7]"] ;
532 -> 534 ;
535 [label="gini = 0.0\nsamples = 6\nvalue = [6, 0]"] ;
534 -> 535 ;
536 [label="num_med_changes <= 0.435\ngini = 0.475\nsamples = 18\nvalue = [11, 7]"] ;
534 -> 536 ;
537 [label="num_medications <= -0.307\ngini = 0.43\nsamples = 16\nvalue = [11, 5]"] ;
536 -> 537 ;
538 [label="number_diagnoses <= -0.469\ngini = 0.198\nsamples = 9\nvalue = [8, 1]"] ;
537 -> 538 ;
539 [label="imputed_age <= 0.261\ngini = 0.5\nsamples = 2\nvalue = [1, 1]"] ;
538 -> 539 ;
540 [label="gini = 0.0\nsamples = 1\nvalue = [1, 0]"] ;
539 -> 540 ;
541 [label="gini = 0.0\nsamples = 1\nvalue = [0, 1]"] ;
539 -> 541 ;
542 [label="gini = 0.0\nsamples = 7\nvalue = [7, 0]"] ;
538 -> 542 ;
543 [label="number_diagnoses <= 0.563\ngini = 0.49\nsamples = 7\nvalue = [3, 4]"] ;
537 -> 543 ;
544 [label="num_lab_procedures <= 0.844\ngini = 0.375\nsamples = 4\nvalue = [3, 1]"] ;
543 -> 544 ;
545 [label="gini = 0.0\nsamples = 3\nvalue = [3, 0]"] ;
544 -> 545 ;
546 [label="gini = 0.0\nsamples = 1\nvalue = [0, 1]"] ;
544 -> 546 ;
547 [label="gini = 0.0\nsamples = 3\nvalue = [0, 3]"] ;
543 -> 547 ;
548 [label="gini = 0.0\nsamples = 2\nvalue = [0, 2]"] ;
536 -> 548 ;
549 [label="gini = 0.0\nsamples = 9\nvalue = [9, 0]"] ;
531 -> 549 ;
550 [label="num_lab_procedures <= 0.385\ngini = 0.499\nsamples = 48\nvalue = [25, 23]"] ;
530 -> 550 ;
551 [label="gini = 0.0\nsamples = 5\nvalue = [5, 0]"] ;
550 -> 551 ;
552 [label="admission_type_id_3 <= 0.5\ngini = 0.498\nsamples = 43\nvalue = [20, 23]"] ;
550 -> 552 ;
553 [label="imputed_age <= 0.261\ngini = 0.5\nsamples = 39\nvalue = [20, 19]"] ;
552 -> 553 ;
554 [label="discharge_disposition_id_2 <= 0.5\ngini = 0.465\nsamples = 19\nvalue = [7, 12]"] ;
553 -> 554 ;
555 [label="num_medications <= -0.677\ngini = 0.375\nsamples = 16\nvalue = [4, 12]"] ;
554 -> 555 ;
556 [label="time_in_hospital <= -0.131\ngini = 0.444\nsamples = 3\nvalue = [2, 1]"] ;
555 -> 556 ;
557 [label="gini = 0.0\nsamples = 1\nvalue = [0, 1]"] ;
556 -> 557 ;
558 [label="gini = 0.0\nsamples = 2\nvalue = [2, 0]"] ;
556 -> 558 ;
559 [label="discharge_disposition_id_13 <= 0.5\ngini = 0.26\nsamples = 13\nvalue = [2, 11]"] ;
555 -> 559 ;
560 [label="time_in_hospital <= -0.635\ngini = 0.153\nsamples = 12\nvalue = [1, 11]"] ;
559 -> 560 ;
561 [label="A1Cresult_>8 <= 0.5\ngini = 0.375\nsamples = 4\nvalue = [1, 3]"] ;
560 -> 561 ;
562 [label="gini = 0.0\nsamples = 3\nvalue = [0, 3]"] ;
561 -> 562 ;
563 [label="gini = 0.0\nsamples = 1\nvalue = [1, 0]"] ;
561 -> 563 ;
564 [label="gini = 0.0\nsamples = 8\nvalue = [0, 8]"] ;
560 -> 564 ;
565 [label="gini = 0.0\nsamples = 1\nvalue = [1, 0]"] ;
559 -> 565 ;
566 [label="gini = 0.0\nsamples = 3\nvalue = [3, 0]"] ;
554 -> 566 ;
567 [label="number_diagnoses <= 0.047\ngini = 0.455\nsamples = 20\nvalue = [13, 7]"] ;
553 -> 567 ;
568 [label="A1Cresult_>8 <= 0.5\ngini = 0.219\nsamples = 8\nvalue = [7, 1]"] ;
567 -> 568 ;
569 [label="gini = 0.0\nsamples = 7\nvalue = [7, 0]"] ;
568 -> 569 ;
570 [label="gini = 0.0\nsamples = 1\nvalue = [0, 1]"] ;
568 -> 570 ;
571 [label="num_medications <= 0.002\ngini = 0.5\nsamples = 12\nvalue = [6, 6]"] ;
567 -> 571 ;
572 [label="num_lab_procedures <= 0.436\ngini = 0.444\nsamples = 9\nvalue = [3, 6]"] ;
571 -> 572 ;
573 [label="gini = 0.0\nsamples = 2\nvalue = [0, 2]"] ;
572 -> 573 ;
574 [label="num_lab_procedures <= 0.946\ngini = 0.49\nsamples = 7\nvalue = [3, 4]"] ;
572 -> 574 ;
575 [label="time_in_hospital <= -0.299\ngini = 0.48\nsamples = 5\nvalue = [3, 2]"] ;
574 -> 575 ;
576 [label="gini = 0.0\nsamples = 2\nvalue = [2, 0]"] ;
575 -> 576 ;
577 [label="race_AfricanAmerican <= 0.5\ngini = 0.444\nsamples = 3\nvalue = [1, 2]"] ;
575 -> 577 ;
578 [label="gini = 0.0\nsamples = 2\nvalue = [0, 2]"] ;
577 -> 578 ;
579 [label="gini = 0.0\nsamples = 1\nvalue = [1, 0]"] ;
577 -> 579 ;
580 [label="gini = 0.0\nsamples = 2\nvalue = [0, 2]"] ;
574 -> 580 ;
581 [label="gini = 0.0\nsamples = 3\nvalue = [3, 0]"] ;
571 -> 581 ;
582 [label="gini = 0.0\nsamples = 4\nvalue = [0, 4]"] ;
552 -> 582 ;
583 [label="gini = 0.0\nsamples = 7\nvalue = [7, 0]"] ;
501 -> 583 ;
584 [label="num_lab_procedures <= 0.767\ngini = 0.486\nsamples = 12\nvalue = [5, 7]"] ;
500 -> 584 ;
585 [label="discharge_disposition_id_6 <= 0.5\ngini = 0.42\nsamples = 10\nvalue = [3, 7]"] ;
584 -> 585 ;
586 [label="num_medications <= 0.002\ngini = 0.48\nsamples = 5\nvalue = [3, 2]"] ;
585 -> 586 ;
587 [label="num_medications <= -0.554\ngini = 0.444\nsamples = 3\nvalue = [1, 2]"] ;
586 -> 587 ;
588 [label="gini = 0.0\nsamples = 1\nvalue = [1, 0]"] ;
587 -> 588 ;
589 [label="gini = 0.0\nsamples = 2\nvalue = [0, 2]"] ;
587 -> 589 ;
590 [label="gini = 0.0\nsamples = 2\nvalue = [2, 0]"] ;
586 -> 590 ;
591 [label="gini = 0.0\nsamples = 5\nvalue = [0, 5]"] ;
585 -> 591 ;
592 [label="gini = 0.0\nsamples = 2\nvalue = [2, 0]"] ;
584 -> 592 ;
593 [label="gini = 0.0\nsamples = 2\nvalue = [0, 2]"] ;
499 -> 593 ;
594 [label="number_diagnoses <= 0.305\ngini = 0.444\nsamples = 12\nvalue = [4, 8]"] ;
498 -> 594 ;
595 [label="gini = 0.0\nsamples = 3\nvalue = [3, 0]"] ;
594 -> 595 ;
596 [label="time_in_hospital <= 1.886\ngini = 0.198\nsamples = 9\nvalue = [1, 8]"] ;
594 -> 596 ;
597 [label="gini = 0.0\nsamples = 8\nvalue = [0, 8]"] ;
596 -> 597 ;
598 [label="gini = 0.0\nsamples = 1\nvalue = [1, 0]"] ;
596 -> 598 ;
599 [label="time_in_hospital <= 0.373\ngini = 0.46\nsamples = 39\nvalue = [14, 25]"] ;
497 -> 599 ;
600 [label="discharge_disposition_id_18 <= 0.5\ngini = 0.231\nsamples = 15\nvalue = [2, 13]"] ;
599 -> 600 ;
601 [label="discharge_disposition_id_23 <= 0.5\ngini = 0.133\nsamples = 14\nvalue = [1, 13]"] ;
600 -> 601 ;
602 [label="gini = 0.0\nsamples = 13\nvalue = [0, 13]"] ;
601 -> 602 ;
603 [label="gini = 0.0\nsamples = 1\nvalue = [1, 0]"] ;
601 -> 603 ;
604 [label="gini = 0.0\nsamples = 1\nvalue = [1, 0]"] ;
600 -> 604 ;
605 [label="time_in_hospital <= 1.718\ngini = 0.5\nsamples = 24\nvalue = [12, 12]"] ;
599 -> 605 ;
606 [label="num_meds_total <= 0.341\ngini = 0.444\nsamples = 18\nvalue = [12, 6]"] ;
605 -> 606 ;
607 [label="admission_source_id_1 <= 0.5\ngini = 0.5\nsamples = 12\nvalue = [6, 6]"] ;
606 -> 607 ;
608 [label="discharge_disposition_id_2 <= 0.5\ngini = 0.444\nsamples = 9\nvalue = [6, 3]"] ;
607 -> 608 ;
609 [label="num_medications <= 0.744\ngini = 0.375\nsamples = 8\nvalue = [6, 2]"] ;
608 -> 609 ;
610 [label="A1Cresult_None <= 0.5\ngini = 0.48\nsamples = 5\nvalue = [3, 2]"] ;
609 -> 610 ;
611 [label="gini = 0.0\nsamples = 2\nvalue = [2, 0]"] ;
610 -> 611 ;
612 [label="num_lab_procedures <= 0.691\ngini = 0.444\nsamples = 3\nvalue = [1, 2]"] ;
610 -> 612 ;
613 [label="gini = 0.0\nsamples = 1\nvalue = [0, 1]"] ;
612 -> 613 ;
614 [label="gender_Male <= 0.5\ngini = 0.5\nsamples = 2\nvalue = [1, 1]"] ;
612 -> 614 ;
615 [label="gini = 0.0\nsamples = 1\nvalue = [0, 1]"] ;
614 -> 615 ;
616 [label="gini = 0.0\nsamples = 1\nvalue = [1, 0]"] ;
614 -> 616 ;
617 [label="gini = 0.0\nsamples = 3\nvalue = [3, 0]"] ;
609 -> 617 ;
618 [label="gini = 0.0\nsamples = 1\nvalue = [0, 1]"] ;
608 -> 618 ;
619 [label="gini = 0.0\nsamples = 3\nvalue = [0, 3]"] ;
607 -> 619 ;
620 [label="gini = 0.0\nsamples = 6\nvalue = [6, 0]"] ;
606 -> 620 ;
621 [label="gini = 0.0\nsamples = 6\nvalue = [0, 6]"] ;
605 -> 621 ;
622 [label="discharge_disposition_id_18 <= 0.5\ngini = 0.476\nsamples = 123\nvalue = [48, 75]"] ;
496 -> 622 ;
623 [label="A1Cresult_None <= 0.5\ngini = 0.493\nsamples = 102\nvalue = [45, 57]"] ;
622 -> 623 ;
624 [label="time_in_hospital <= 1.382\ngini = 0.459\nsamples = 28\nvalue = [18, 10]"] ;
623 -> 624 ;
625 [label="num_lab_procedures <= 0.844\ngini = 0.48\nsamples = 25\nvalue = [15, 10]"] ;
624 -> 625 ;
626 [label="num_medications <= 0.682\ngini = 0.391\nsamples = 15\nvalue = [11, 4]"] ;
625 -> 626 ;
627 [label="num_lab_procedures <= 0.283\ngini = 0.26\nsamples = 13\nvalue = [11, 2]"] ;
626 -> 627 ;
628 [label="gini = 0.0\nsamples = 1\nvalue = [0, 1]"] ;
627 -> 628 ;
629 [label="time_in_hospital <= 1.046\ngini = 0.153\nsamples = 12\nvalue = [11, 1]"] ;
627 -> 629 ;
630 [label="gini = 0.0\nsamples = 10\nvalue = [10, 0]"] ;
629 -> 630 ;
631 [label="A1Cresult_Norm <= 0.5\ngini = 0.5\nsamples = 2\nvalue = [1, 1]"] ;
629 -> 631 ;
632 [label="gini = 0.0\nsamples = 1\nvalue = [1, 0]"] ;
631 -> 632 ;
633 [label="gini = 0.0\nsamples = 1\nvalue = [0, 1]"] ;
631 -> 633 ;
634 [label="gini = 0.0\nsamples = 2\nvalue = [0, 2]"] ;
626 -> 634 ;
635 [label="num_lab_procedures <= 0.997\ngini = 0.48\nsamples = 10\nvalue = [4, 6]"] ;
625 -> 635 ;
636 [label="admission_type_id_2 <= 0.5\ngini = 0.278\nsamples = 6\nvalue = [1, 5]"] ;
635 -> 636 ;
637 [label="gini = 0.0\nsamples = 5\nvalue = [0, 5]"] ;
636 -> 637 ;
638 [label="gini = 0.0\nsamples = 1\nvalue = [1, 0]"] ;
636 -> 638 ;
639 [label="num_procedures <= 0.1\ngini = 0.375\nsamples = 4\nvalue = [3, 1]"] ;
635 -> 639 ;
640 [label="gini = 0.0\nsamples = 3\nvalue = [3, 0]"] ;
639 -> 640 ;
641 [label="gini = 0.0\nsamples = 1\nvalue = [0, 1]"] ;
639 -> 641 ;
642 [label="gini = 0.0\nsamples = 3\nvalue = [3, 0]"] ;
624 -> 642 ;
643 [label="num_medications <= -0.183\ngini = 0.463\nsamples = 74\nvalue = [27, 47]"] ;
623 -> 643 ;
644 [label="num_lab_procedures <= 0.742\ngini = 0.334\nsamples = 33\nvalue = [7, 26]"] ;
643 -> 644 ;
645 [label="race_Caucasian <= 0.5\ngini = 0.455\nsamples = 20\nvalue = [7, 13]"] ;
644 -> 645 ;
646 [label="gini = 0.0\nsamples = 2\nvalue = [2, 0]"] ;
645 -> 646 ;
647 [label="admission_type_id_3 <= 0.5\ngini = 0.401\nsamples = 18\nvalue = [5, 13]"] ;
645 -> 647 ;
648 [label="time_in_hospital <= 1.718\ngini = 0.305\nsamples = 16\nvalue = [3, 13]"] ;
647 -> 648 ;
649 [label="admission_type_id_2 <= 0.5\ngini = 0.231\nsamples = 15\nvalue = [2, 13]"] ;
648 -> 649 ;
650 [label="gini = 0.0\nsamples = 9\nvalue = [0, 9]"] ;
649 -> 650 ;
651 [label="imputed_age <= 0.888\ngini = 0.444\nsamples = 6\nvalue = [2, 4]"] ;
649 -> 651 ;
652 [label="gini = 0.0\nsamples = 4\nvalue = [0, 4]"] ;
651 -> 652 ;
653 [label="gini = 0.0\nsamples = 2\nvalue = [2, 0]"] ;
651 -> 653 ;
654 [label="gini = 0.0\nsamples = 1\nvalue = [1, 0]"] ;
648 -> 654 ;
655 [label="gini = 0.0\nsamples = 2\nvalue = [2, 0]"] ;
647 -> 655 ;
656 [label="gini = 0.0\nsamples = 13\nvalue = [0, 13]"] ;
644 -> 656 ;
657 [label="num_lab_procedures <= 0.691\ngini = 0.5\nsamples = 41\nvalue = [20, 21]"] ;
643 -> 657 ;
658 [label="num_lab_procedures <= 0.589\ngini = 0.386\nsamples = 23\nvalue = [6, 17]"] ;
657 -> 658 ;
659 [label="time_in_hospital <= 0.037\ngini = 0.469\nsamples = 16\nvalue = [6, 10]"] ;
658 -> 659 ;
660 [label="gini = 0.0\nsamples = 2\nvalue = [2, 0]"] ;
659 -> 660 ;
661 [label="admission_source_id_7 <= 0.5\ngini = 0.408\nsamples = 14\nvalue = [4, 10]"] ;
659 -> 661 ;
662 [label="gini = 0.0\nsamples = 7\nvalue = [0, 7]"] ;
661 -> 662 ;
663 [label="time_in_hospital <= 0.373\ngini = 0.49\nsamples = 7\nvalue = [4, 3]"] ;
661 -> 663 ;
664 [label="gini = 0.0\nsamples = 2\nvalue = [0, 2]"] ;
663 -> 664 ;
665 [label="discharge_disposition_id_8 <= 0.5\ngini = 0.32\nsamples = 5\nvalue = [4, 1]"] ;
663 -> 665 ;
666 [label="gini = 0.0\nsamples = 4\nvalue = [4, 0]"] ;
665 -> 666 ;
667 [label="gini = 0.0\nsamples = 1\nvalue = [0, 1]"] ;
665 -> 667 ;
668 [label="gini = 0.0\nsamples = 7\nvalue = [0, 7]"] ;
658 -> 668 ;
669 [label="time_in_hospital <= 1.382\ngini = 0.346\nsamples = 18\nvalue = [14, 4]"] ;
657 -> 669 ;
670 [label="admission_type_id_3 <= 0.5\ngini = 0.153\nsamples = 12\nvalue = [11, 1]"] ;
669 -> 670 ;
671 [label="gini = 0.0\nsamples = 10\nvalue = [10, 0]"] ;
670 -> 671 ;
672 [label="num_meds_total <= 0.884\ngini = 0.5\nsamples = 2\nvalue = [1, 1]"] ;
670 -> 672 ;
673 [label="gini = 0.0\nsamples = 1\nvalue = [0, 1]"] ;
672 -> 673 ;
674 [label="gini = 0.0\nsamples = 1\nvalue = [1, 0]"] ;
672 -> 674 ;
675 [label="num_procedures <= 0.1\ngini = 0.5\nsamples = 6\nvalue = [3, 3]"] ;
669 -> 675 ;
676 [label="gini = 0.0\nsamples = 3\nvalue = [3, 0]"] ;
675 -> 676 ;
677 [label="gini = 0.0\nsamples = 3\nvalue = [0, 3]"] ;
675 -> 677 ;
678 [label="admission_source_id_3 <= 0.5\ngini = 0.245\nsamples = 21\nvalue = [3, 18]"] ;
622 -> 678 ;
679 [label="time_in_hospital <= 2.727\ngini = 0.18\nsamples = 20\nvalue = [2, 18]"] ;
678 -> 679 ;
680 [label="admission_source_id_5 <= 0.5\ngini = 0.1\nsamples = 19\nvalue = [1, 18]"] ;
679 -> 680 ;
681 [label="gini = 0.0\nsamples = 17\nvalue = [0, 17]"] ;
680 -> 681 ;
682 [label="gender_Male <= 0.5\ngini = 0.5\nsamples = 2\nvalue = [1, 1]"] ;
680 -> 682 ;
683 [label="gini = 0.0\nsamples = 1\nvalue = [1, 0]"] ;
682 -> 683 ;
684 [label="gini = 0.0\nsamples = 1\nvalue = [0, 1]"] ;
682 -> 684 ;
685 [label="gini = 0.0\nsamples = 1\nvalue = [1, 0]"] ;
679 -> 685 ;
686 [label="gini = 0.0\nsamples = 1\nvalue = [1, 0]"] ;
678 -> 686 ;
687 [label="A1Cresult_>8 <= 0.5\ngini = 0.298\nsamples = 11\nvalue = [2, 9]"] ;
201 -> 687 ;
688 [label="gini = 0.0\nsamples = 9\nvalue = [0, 9]"] ;
687 -> 688 ;
689 [label="gini = 0.0\nsamples = 2\nvalue = [2, 0]"] ;
687 -> 689 ;
690 [label="gini = 0.0\nsamples = 7\nvalue = [0, 7]"] ;
200 -> 690 ;
691 [label="time_in_hospital <= 0.373\ngini = 0.451\nsamples = 67\nvalue = [23, 44]"] ;
199 -> 691 ;
692 [label="num_lab_procedures <= -0.226\ngini = 0.38\nsamples = 51\nvalue = [13, 38]"] ;
691 -> 692 ;
693 [label="discharge_disposition_id_4 <= 0.5\ngini = 0.117\nsamples = 16\nvalue = [1, 15]"] ;
692 -> 693 ;
694 [label="gini = 0.0\nsamples = 15\nvalue = [0, 15]"] ;
693 -> 694 ;
695 [label="gini = 0.0\nsamples = 1\nvalue = [1, 0]"] ;
693 -> 695 ;
696 [label="num_medications <= 0.435\ngini = 0.451\nsamples = 35\nvalue = [12, 23]"] ;
692 -> 696 ;
697 [label="num_lab_procedures <= 0.716\ngini = 0.494\nsamples = 27\nvalue = [12, 15]"] ;
696 -> 697 ;
698 [label="num_meds_total <= 0.341\ngini = 0.484\nsamples = 17\nvalue = [10, 7]"] ;
697 -> 698 ;
699 [label="num_lab_procedures <= 0.105\ngini = 0.32\nsamples = 10\nvalue = [8, 2]"] ;
698 -> 699 ;
700 [label="num_lab_procedures <= -0.125\ngini = 0.5\nsamples = 4\nvalue = [2, 2]"] ;
699 -> 700 ;
701 [label="gini = 0.0\nsamples = 2\nvalue = [2, 0]"] ;
700 -> 701 ;
702 [label="gini = 0.0\nsamples = 2\nvalue = [0, 2]"] ;
700 -> 702 ;
703 [label="gini = 0.0\nsamples = 6\nvalue = [6, 0]"] ;
699 -> 703 ;
704 [label="time_in_hospital <= 0.037\ngini = 0.408\nsamples = 7\nvalue = [2, 5]"] ;
698 -> 704 ;
705 [label="race_Caucasian <= 0.5\ngini = 0.278\nsamples = 6\nvalue = [1, 5]"] ;
704 -> 705 ;
706 [label="number_diagnoses <= 0.563\ngini = 0.5\nsamples = 2\nvalue = [1, 1]"] ;
705 -> 706 ;
707 [label="gini = 0.0\nsamples = 1\nvalue = [0, 1]"] ;
706 -> 707 ;
708 [label="gini = 0.0\nsamples = 1\nvalue = [1, 0]"] ;
706 -> 708 ;
709 [label="gini = 0.0\nsamples = 4\nvalue = [0, 4]"] ;
705 -> 709 ;
710 [label="gini = 0.0\nsamples = 1\nvalue = [1, 0]"] ;
704 -> 710 ;
711 [label="num_enc_to_date <= 1.749\ngini = 0.32\nsamples = 10\nvalue = [2, 8]"] ;
697 -> 711 ;
712 [label="discharge_disposition_id_4 <= 0.5\ngini = 0.198\nsamples = 9\nvalue = [1, 8]"] ;
711 -> 712 ;
713 [label="gini = 0.0\nsamples = 8\nvalue = [0, 8]"] ;
712 -> 713 ;
714 [label="gini = 0.0\nsamples = 1\nvalue = [1, 0]"] ;
712 -> 714 ;
715 [label="gini = 0.0\nsamples = 1\nvalue = [1, 0]"] ;
711 -> 715 ;
716 [label="gini = 0.0\nsamples = 8\nvalue = [0, 8]"] ;
696 -> 716 ;
717 [label="admission_type_id_2 <= 0.5\ngini = 0.469\nsamples = 16\nvalue = [10, 6]"] ;
691 -> 717 ;
718 [label="num_lab_procedures <= 0.181\ngini = 0.408\nsamples = 14\nvalue = [10, 4]"] ;
717 -> 718 ;
719 [label="gini = 0.0\nsamples = 5\nvalue = [5, 0]"] ;
718 -> 719 ;
720 [label="num_lab_procedures <= 0.844\ngini = 0.494\nsamples = 9\nvalue = [5, 4]"] ;
718 -> 720 ;
721 [label="admission_type_id_1 <= 0.5\ngini = 0.32\nsamples = 5\nvalue = [1, 4]"] ;
720 -> 721 ;
722 [label="gini = 0.0\nsamples = 1\nvalue = [1, 0]"] ;
721 -> 722 ;
723 [label="gini = 0.0\nsamples = 4\nvalue = [0, 4]"] ;
721 -> 723 ;
724 [label="gini = 0.0\nsamples = 4\nvalue = [4, 0]"] ;
720 -> 724 ;
725 [label="gini = 0.0\nsamples = 2\nvalue = [0, 2]"] ;
717 -> 725 ;
726 [label="num_medications <= 1.794\ngini = 0.429\nsamples = 106\nvalue = [73, 33]"] ;
198 -> 726 ;
727 [label="max_glu_serum_Norm <= 0.5\ngini = 0.413\nsamples = 103\nvalue = [73, 30]"] ;
726 -> 727 ;
728 [label="time_in_hospital <= 1.382\ngini = 0.401\nsamples = 101\nvalue = [73, 28]"] ;
727 -> 728 ;
729 [label="A1Cresult_Norm <= 0.5\ngini = 0.444\nsamples = 78\nvalue = [52, 26]"] ;
728 -> 729 ;
730 [label="num_lab_procedures <= 1.659\ngini = 0.467\nsamples = 70\nvalue = [44, 26]"] ;
729 -> 730 ;
731 [label="num_enc_to_date <= 0.032\ngini = 0.427\nsamples = 55\nvalue = [38, 17]"] ;
730 -> 731 ;
732 [label="discharge_disposition_id_6 <= 0.5\ngini = 0.453\nsamples = 49\nvalue = [32, 17]"] ;
731 -> 732 ;
733 [label="num_medications <= 0.188\ngini = 0.499\nsamples = 21\nvalue = [11, 10]"] ;
732 -> 733 ;
734 [label="race_AfricanAmerican <= 0.5\ngini = 0.469\nsamples = 16\nvalue = [6, 10]"] ;
733 -> 734 ;
735 [label="imputed_age <= -0.366\ngini = 0.298\nsamples = 11\nvalue = [2, 9]"] ;
734 -> 735 ;
736 [label="discharge_disposition_id_18 <= 0.5\ngini = 0.444\nsamples = 3\nvalue = [2, 1]"] ;
735 -> 736 ;
737 [label="gini = 0.0\nsamples = 1\nvalue = [0, 1]"] ;
736 -> 737 ;
738 [label="gini = 0.0\nsamples = 2\nvalue = [2, 0]"] ;
736 -> 738 ;
739 [label="gini = 0.0\nsamples = 8\nvalue = [0, 8]"] ;
735 -> 739 ;
740 [label="num_meds_total <= 0.341\ngini = 0.32\nsamples = 5\nvalue = [4, 1]"] ;
734 -> 740 ;
741 [label="gini = 0.0\nsamples = 4\nvalue = [4, 0]"] ;
740 -> 741 ;
742 [label="gini = 0.0\nsamples = 1\nvalue = [0, 1]"] ;
740 -> 742 ;
743 [label="gini = 0.0\nsamples = 5\nvalue = [5, 0]"] ;
733 -> 743 ;
744 [label="A1Cresult_>7 <= 0.5\ngini = 0.375\nsamples = 28\nvalue = [21, 7]"] ;
732 -> 744 ;
745 [label="num_lab_procedures <= 1.353\ngini = 0.32\nsamples = 25\nvalue = [20, 5]"] ;
744 -> 745 ;
746 [label="gini = 0.0\nsamples = 7\nvalue = [7, 0]"] ;
745 -> 746 ;
747 [label="num_lab_procedures <= 1.455\ngini = 0.401\nsamples = 18\nvalue = [13, 5]"] ;
745 -> 747 ;
748 [label="race_AfricanAmerican <= 0.5\ngini = 0.494\nsamples = 9\nvalue = [5, 4]"] ;
747 -> 748 ;
749 [label="number_diagnoses <= 0.047\ngini = 0.49\nsamples = 7\nvalue = [3, 4]"] ;
748 -> 749 ;
750 [label="gini = 0.0\nsamples = 1\nvalue = [1, 0]"] ;
749 -> 750 ;
751 [label="gender_Male <= 0.5\ngini = 0.444\nsamples = 6\nvalue = [2, 4]"] ;
749 -> 751 ;
752 [label="gini = 0.0\nsamples = 3\nvalue = [0, 3]"] ;
751 -> 752 ;
753 [label="time_in_hospital <= 0.037\ngini = 0.444\nsamples = 3\nvalue = [2, 1]"] ;
751 -> 753 ;
754 [label="gini = 0.0\nsamples = 1\nvalue = [0, 1]"] ;
753 -> 754 ;
755 [label="gini = 0.0\nsamples = 2\nvalue = [2, 0]"] ;
753 -> 755 ;
756 [label="gini = 0.0\nsamples = 2\nvalue = [2, 0]"] ;
748 -> 756 ;
757 [label="number_diagnoses <= 0.305\ngini = 0.198\nsamples = 9\nvalue = [8, 1]"] ;
747 -> 757 ;
758 [label="num_lab_procedures <= 1.557\ngini = 0.5\nsamples = 2\nvalue = [1, 1]"] ;
757 -> 758 ;
759 [label="gini = 0.0\nsamples = 1\nvalue = [1, 0]"] ;
758 -> 759 ;
760 [label="gini = 0.0\nsamples = 1\nvalue = [0, 1]"] ;
758 -> 760 ;
761 [label="gini = 0.0\nsamples = 7\nvalue = [7, 0]"] ;
757 -> 761 ;
762 [label="gender_Male <= 0.5\ngini = 0.444\nsamples = 3\nvalue = [1, 2]"] ;
744 -> 762 ;
763 [label="gini = 0.0\nsamples = 2\nvalue = [0, 2]"] ;
762 -> 763 ;
764 [label="gini = 0.0\nsamples = 1\nvalue = [1, 0]"] ;
762 -> 764 ;
765 [label="gini = 0.0\nsamples = 6\nvalue = [6, 0]"] ;
731 -> 765 ;
766 [label="time_in_hospital <= -0.299\ngini = 0.48\nsamples = 15\nvalue = [6, 9]"] ;
730 -> 766 ;
767 [label="gini = 0.0\nsamples = 2\nvalue = [2, 0]"] ;
766 -> 767 ;
768 [label="imputed_age <= 0.261\ngini = 0.426\nsamples = 13\nvalue = [4, 9]"] ;
766 -> 768 ;
769 [label="imputed_age <= -0.366\ngini = 0.5\nsamples = 8\nvalue = [4, 4]"] ;
768 -> 769 ;
770 [label="num_medications <= -0.06\ngini = 0.32\nsamples = 5\nvalue = [1, 4]"] ;
769 -> 770 ;
771 [label="gini = 0.0\nsamples = 1\nvalue = [1, 0]"] ;
770 -> 771 ;
772 [label="gini = 0.0\nsamples = 4\nvalue = [0, 4]"] ;
770 -> 772 ;
773 [label="gini = 0.0\nsamples = 3\nvalue = [3, 0]"] ;
769 -> 773 ;
774 [label="gini = 0.0\nsamples = 5\nvalue = [0, 5]"] ;
768 -> 774 ;
775 [label="gini = 0.0\nsamples = 8\nvalue = [8, 0]"] ;
729 -> 775 ;
776 [label="diabetesMed_No <= 0.5\ngini = 0.159\nsamples = 23\nvalue = [21, 2]"] ;
728 -> 776 ;
777 [label="race_AfricanAmerican <= 0.5\ngini = 0.091\nsamples = 21\nvalue = [20, 1]"] ;
776 -> 777 ;
778 [label="gini = 0.0\nsamples = 20\nvalue = [20, 0]"] ;
777 -> 778 ;
779 [label="gini = 0.0\nsamples = 1\nvalue = [0, 1]"] ;
777 -> 779 ;
780 [label="race_Caucasian <= 0.5\ngini = 0.5\nsamples = 2\nvalue = [1, 1]"] ;
776 -> 780 ;
781 [label="gini = 0.0\nsamples = 1\nvalue = [1, 0]"] ;
780 -> 781 ;
782 [label="gini = 0.0\nsamples = 1\nvalue = [0, 1]"] ;
780 -> 782 ;
783 [label="gini = 0.0\nsamples = 2\nvalue = [0, 2]"] ;
727 -> 783 ;
784 [label="gini = 0.0\nsamples = 3\nvalue = [0, 3]"] ;
726 -> 784 ;
785 [label="time_in_hospital <= 0.373\ngini = 0.497\nsamples = 327\nvalue = [150, 177]"] ;
181 -> 785 ;
786 [label="discharge_disposition_id_6 <= 0.5\ngini = 0.495\nsamples = 133\nvalue = [73, 60]"] ;
785 -> 786 ;
787 [label="discharge_disposition_id_7 <= 0.5\ngini = 0.458\nsamples = 76\nvalue = [49, 27]"] ;
786 -> 787 ;
788 [label="max_glu_serum_None <= 0.5\ngini = 0.435\nsamples = 72\nvalue = [49, 23]"] ;
787 -> 788 ;
789 [label="gini = 0.0\nsamples = 3\nvalue = [0, 3]"] ;
788 -> 789 ;
790 [label="num_lab_procedures <= -1.908\ngini = 0.412\nsamples = 69\nvalue = [49, 20]"] ;
788 -> 790 ;
791 [label="admission_type_id_2 <= 0.5\ngini = 0.375\nsamples = 4\nvalue = [1, 3]"] ;
790 -> 791 ;
792 [label="gini = 0.0\nsamples = 3\nvalue = [0, 3]"] ;
791 -> 792 ;
793 [label="gini = 0.0\nsamples = 1\nvalue = [1, 0]"] ;
791 -> 793 ;
794 [label="num_lab_procedures <= -0.94\ngini = 0.386\nsamples = 65\nvalue = [48, 17]"] ;
790 -> 794 ;
795 [label="gini = 0.0\nsamples = 12\nvalue = [12, 0]"] ;
794 -> 795 ;
796 [label="num_lab_procedures <= -0.889\ngini = 0.436\nsamples = 53\nvalue = [36, 17]"] ;
794 -> 796 ;
797 [label="gini = 0.0\nsamples = 2\nvalue = [0, 2]"] ;
796 -> 797 ;
798 [label="imputed_age <= -0.993\ngini = 0.415\nsamples = 51\nvalue = [36, 15]"] ;
796 -> 798 ;
799 [label="gini = 0.0\nsamples = 8\nvalue = [8, 0]"] ;
798 -> 799 ;
800 [label="num_lab_procedures <= 0.334\ngini = 0.454\nsamples = 43\nvalue = [28, 15]"] ;
798 -> 800 ;
801 [label="gender_Male <= 0.5\ngini = 0.366\nsamples = 29\nvalue = [22, 7]"] ;
800 -> 801 ;
802 [label="admission_type_id_3 <= 0.5\ngini = 0.497\nsamples = 13\nvalue = [6, 7]"] ;
801 -> 802 ;
803 [label="num_meds_total <= -0.744\ngini = 0.444\nsamples = 9\nvalue = [6, 3]"] ;
802 -> 803 ;
804 [label="gini = 0.0\nsamples = 3\nvalue = [3, 0]"] ;
803 -> 804 ;
805 [label="imputed_age <= -0.052\ngini = 0.5\nsamples = 6\nvalue = [3, 3]"] ;
803 -> 805 ;
806 [label="gini = 0.0\nsamples = 2\nvalue = [0, 2]"] ;
805 -> 806 ;
807 [label="admission_type_id_6 <= 0.5\ngini = 0.375\nsamples = 4\nvalue = [3, 1]"] ;
805 -> 807 ;
808 [label="gini = 0.0\nsamples = 3\nvalue = [3, 0]"] ;
807 -> 808 ;
809 [label="gini = 0.0\nsamples = 1\nvalue = [0, 1]"] ;
807 -> 809 ;
810 [label="gini = 0.0\nsamples = 4\nvalue = [0, 4]"] ;
802 -> 810 ;
811 [label="gini = 0.0\nsamples = 16\nvalue = [16, 0]"] ;
801 -> 811 ;
812 [label="number_diagnoses <= 0.563\ngini = 0.49\nsamples = 14\nvalue = [6, 8]"] ;
800 -> 812 ;
813 [label="gini = 0.0\nsamples = 6\nvalue = [0, 6]"] ;
812 -> 813 ;
814 [label="num_procedures <= 1.276\ngini = 0.375\nsamples = 8\nvalue = [6, 2]"] ;
812 -> 814 ;
815 [label="gini = 0.0\nsamples = 2\nvalue = [0, 2]"] ;
814 -> 815 ;
816 [label="gini = 0.0\nsamples = 6\nvalue = [6, 0]"] ;
814 -> 816 ;
817 [label="gini = 0.0\nsamples = 4\nvalue = [0, 4]"] ;
787 -> 817 ;
818 [label="admission_source_id_17 <= 0.5\ngini = 0.488\nsamples = 57\nvalue = [24, 33]"] ;
786 -> 818 ;
819 [label="admission_source_id_1 <= 0.5\ngini = 0.457\nsamples = 51\nvalue = [18, 33]"] ;
818 -> 819 ;
820 [label="num_lab_procedures <= -2.112\ngini = 0.245\nsamples = 21\nvalue = [3, 18]"] ;
819 -> 820 ;
821 [label="gini = 0.0\nsamples = 1\nvalue = [1, 0]"] ;
820 -> 821 ;
822 [label="time_in_hospital <= -0.635\ngini = 0.18\nsamples = 20\nvalue = [2, 18]"] ;
820 -> 822 ;
823 [label="gini = 0.0\nsamples = 1\nvalue = [1, 0]"] ;
822 -> 823 ;
824 [label="num_lab_procedures <= 0.844\ngini = 0.1\nsamples = 19\nvalue = [1, 18]"] ;
822 -> 824 ;
825 [label="gini = 0.0\nsamples = 15\nvalue = [0, 15]"] ;
824 -> 825 ;
826 [label="imputed_age <= 0.261\ngini = 0.375\nsamples = 4\nvalue = [1, 3]"] ;
824 -> 826 ;
827 [label="gini = 0.0\nsamples = 1\nvalue = [1, 0]"] ;
826 -> 827 ;
828 [label="gini = 0.0\nsamples = 3\nvalue = [0, 3]"] ;
826 -> 828 ;
829 [label="num_lab_procedures <= -0.074\ngini = 0.5\nsamples = 30\nvalue = [15, 15]"] ;
819 -> 829 ;
830 [label="time_in_hospital <= 0.037\ngini = 0.444\nsamples = 18\nvalue = [12, 6]"] ;
829 -> 830 ;
831 [label="number_diagnoses <= 0.563\ngini = 0.497\nsamples = 13\nvalue = [7, 6]"] ;
830 -> 831 ;
832 [label="admission_type_id_2 <= 0.5\ngini = 0.375\nsamples = 8\nvalue = [6, 2]"] ;
831 -> 832 ;
833 [label="num_lab_procedures <= -0.354\ngini = 0.245\nsamples = 7\nvalue = [6, 1]"] ;
832 -> 833 ;
834 [label="gini = 0.0\nsamples = 6\nvalue = [6, 0]"] ;
833 -> 834 ;
835 [label="gini = 0.0\nsamples = 1\nvalue = [0, 1]"] ;
833 -> 835 ;
836 [label="gini = 0.0\nsamples = 1\nvalue = [0, 1]"] ;
832 -> 836 ;
837 [label="imputed_age <= -0.366\ngini = 0.32\nsamples = 5\nvalue = [1, 4]"] ;
831 -> 837 ;
838 [label="gini = 0.0\nsamples = 3\nvalue = [0, 3]"] ;
837 -> 838 ;
839 [label="admission_type_id_3 <= 0.5\ngini = 0.5\nsamples = 2\nvalue = [1, 1]"] ;
837 -> 839 ;
840 [label="gini = 0.0\nsamples = 1\nvalue = [0, 1]"] ;
839 -> 840 ;
841 [label="gini = 0.0\nsamples = 1\nvalue = [1, 0]"] ;
839 -> 841 ;
842 [label="gini = 0.0\nsamples = 5\nvalue = [5, 0]"] ;
830 -> 842 ;
843 [label="num_lab_procedures <= 1.252\ngini = 0.375\nsamples = 12\nvalue = [3, 9]"] ;
829 -> 843 ;
844 [label="num_medications <= 2.165\ngini = 0.18\nsamples = 10\nvalue = [1, 9]"] ;
843 -> 844 ;
845 [label="gini = 0.0\nsamples = 9\nvalue = [0, 9]"] ;
844 -> 845 ;
846 [label="gini = 0.0\nsamples = 1\nvalue = [1, 0]"] ;
844 -> 846 ;
847 [label="gini = 0.0\nsamples = 2\nvalue = [2, 0]"] ;
843 -> 847 ;
848 [label="gini = 0.0\nsamples = 6\nvalue = [6, 0]"] ;
818 -> 848 ;
849 [label="admission_type_id_6 <= 0.5\ngini = 0.479\nsamples = 194\nvalue = [77, 117]"] ;
785 -> 849 ;
850 [label="num_medications <= 2.535\ngini = 0.468\nsamples = 182\nvalue = [68, 114]"] ;
849 -> 850 ;
851 [label="admission_type_id_3 <= 0.5\ngini = 0.457\nsamples = 167\nvalue = [59, 108]"] ;
850 -> 851 ;
852 [label="num_medications <= -0.43\ngini = 0.419\nsamples = 117\nvalue = [35, 82]"] ;
851 -> 852 ;
853 [label="gini = 0.0\nsamples = 13\nvalue = [0, 13]"] ;
852 -> 853 ;
854 [label="A1Cresult_Norm <= 0.5\ngini = 0.447\nsamples = 104\nvalue = [35, 69]"] ;
852 -> 854 ;
855 [label="num_medications <= -0.06\ngini = 0.43\nsamples = 99\nvalue = [31, 68]"] ;
854 -> 855 ;
856 [label="imputed_age <= -0.366\ngini = 0.444\nsamples = 9\nvalue = [6, 3]"] ;
855 -> 856 ;
857 [label="gini = 0.0\nsamples = 2\nvalue = [0, 2]"] ;
856 -> 857 ;
858 [label="A1Cresult_>7 <= 0.5\ngini = 0.245\nsamples = 7\nvalue = [6, 1]"] ;
856 -> 858 ;
859 [label="gini = 0.0\nsamples = 6\nvalue = [6, 0]"] ;
858 -> 859 ;
860 [label="gini = 0.0\nsamples = 1\nvalue = [0, 1]"] ;
858 -> 860 ;
861 [label="number_diagnoses <= -0.469\ngini = 0.401\nsamples = 90\nvalue = [25, 65]"] ;
855 -> 861 ;
862 [label="gini = 0.0\nsamples = 3\nvalue = [3, 0]"] ;
861 -> 862 ;
863 [label="num_medications <= 1.918\ngini = 0.378\nsamples = 87\nvalue = [22, 65]"] ;
861 -> 863 ;
864 [label="discharge_disposition_id_14 <= 0.5\ngini = 0.32\nsamples = 75\nvalue = [15, 60]"] ;
863 -> 864 ;
865 [label="discharge_disposition_id_13 <= 0.5\ngini = 0.307\nsamples = 74\nvalue = [14, 60]"] ;
864 -> 865 ;
866 [label="discharge_disposition_id_23 <= 0.5\ngini = 0.293\nsamples = 73\nvalue = [13, 60]"] ;
865 -> 866 ;
867 [label="num_medications <= 1.176\ngini = 0.278\nsamples = 72\nvalue = [12, 60]"] ;
866 -> 867 ;
868 [label="imputed_age <= -0.366\ngini = 0.187\nsamples = 48\nvalue = [5, 43]"] ;
867 -> 868 ;
869 [label="num_medications <= 0.373\ngini = 0.391\nsamples = 15\nvalue = [4, 11]"] ;
868 -> 869 ;
870 [label="num_med_changes <= 0.435\ngini = 0.375\nsamples = 4\nvalue = [3, 1]"] ;
869 -> 870 ;
871 [label="gini = 0.0\nsamples = 3\nvalue = [3, 0]"] ;
870 -> 871 ;
872 [label="gini = 0.0\nsamples = 1\nvalue = [0, 1]"] ;
870 -> 872 ;
873 [label="admission_source_id_1 <= 0.5\ngini = 0.165\nsamples = 11\nvalue = [1, 10]"] ;
869 -> 873 ;
874 [label="gini = 0.0\nsamples = 10\nvalue = [0, 10]"] ;
873 -> 874 ;
875 [label="gini = 0.0\nsamples = 1\nvalue = [1, 0]"] ;
873 -> 875 ;
876 [label="admission_type_id_5 <= 0.5\ngini = 0.059\nsamples = 33\nvalue = [1, 32]"] ;
868 -> 876 ;
877 [label="gini = 0.0\nsamples = 31\nvalue = [0, 31]"] ;
876 -> 877 ;
878 [label="gender_Male <= 0.5\ngini = 0.5\nsamples = 2\nvalue = [1, 1]"] ;
876 -> 878 ;
879 [label="gini = 0.0\nsamples = 1\nvalue = [0, 1]"] ;
878 -> 879 ;
880 [label="gini = 0.0\nsamples = 1\nvalue = [1, 0]"] ;
878 -> 880 ;
881 [label="admission_type_id_2 <= 0.5\ngini = 0.413\nsamples = 24\nvalue = [7, 17]"] ;
867 -> 881 ;
882 [label="num_meds_total <= 0.341\ngini = 0.278\nsamples = 18\nvalue = [3, 15]"] ;
881 -> 882 ;
883 [label="gini = 0.0\nsamples = 12\nvalue = [0, 12]"] ;
882 -> 883 ;
884 [label="num_procedures <= 2.158\ngini = 0.5\nsamples = 6\nvalue = [3, 3]"] ;
882 -> 884 ;
885 [label="num_medications <= 1.67\ngini = 0.375\nsamples = 4\nvalue = [3, 1]"] ;
884 -> 885 ;
886 [label="gini = 0.0\nsamples = 3\nvalue = [3, 0]"] ;
885 -> 886 ;
887 [label="gini = 0.0\nsamples = 1\nvalue = [0, 1]"] ;
885 -> 887 ;
888 [label="gini = 0.0\nsamples = 2\nvalue = [0, 2]"] ;
884 -> 888 ;
889 [label="change_No <= 0.5\ngini = 0.444\nsamples = 6\nvalue = [4, 2]"] ;
881 -> 889 ;
890 [label="imputed_age <= -0.366\ngini = 0.444\nsamples = 3\nvalue = [1, 2]"] ;
889 -> 890 ;
891 [label="gini = 0.0\nsamples = 1\nvalue = [1, 0]"] ;
890 -> 891 ;
892 [label="gini = 0.0\nsamples = 2\nvalue = [0, 2]"] ;
890 -> 892 ;
893 [label="gini = 0.0\nsamples = 3\nvalue = [3, 0]"] ;
889 -> 893 ;
894 [label="gini = 0.0\nsamples = 1\nvalue = [1, 0]"] ;
866 -> 894 ;
895 [label="gini = 0.0\nsamples = 1\nvalue = [1, 0]"] ;
865 -> 895 ;
896 [label="gini = 0.0\nsamples = 1\nvalue = [1, 0]"] ;
864 -> 896 ;
897 [label="change_Ch <= 0.5\ngini = 0.486\nsamples = 12\nvalue = [7, 5]"] ;
863 -> 897 ;
898 [label="num_medications <= 2.165\ngini = 0.408\nsamples = 7\nvalue = [2, 5]"] ;
897 -> 898 ;
899 [label="gini = 0.0\nsamples = 2\nvalue = [2, 0]"] ;
898 -> 899 ;
900 [label="gini = 0.0\nsamples = 5\nvalue = [0, 5]"] ;
898 -> 900 ;
901 [label="gini = 0.0\nsamples = 5\nvalue = [5, 0]"] ;
897 -> 901 ;
902 [label="discharge_disposition_id_15 <= 0.5\ngini = 0.32\nsamples = 5\nvalue = [4, 1]"] ;
854 -> 902 ;
903 [label="gini = 0.0\nsamples = 4\nvalue = [4, 0]"] ;
902 -> 903 ;
904 [label="gini = 0.0\nsamples = 1\nvalue = [0, 1]"] ;
902 -> 904 ;
905 [label="num_medications <= 1.3\ngini = 0.499\nsamples = 50\nvalue = [24, 26]"] ;
851 -> 905 ;
906 [label="discharge_disposition_id_2 <= 0.5\ngini = 0.444\nsamples = 27\nvalue = [18, 9]"] ;
905 -> 906 ;
907 [label="num_med_changes <= 0.435\ngini = 0.375\nsamples = 24\nvalue = [18, 6]"] ;
906 -> 907 ;
908 [label="race_Caucasian <= 0.5\ngini = 0.469\nsamples = 16\nvalue = [10, 6]"] ;
907 -> 908 ;
909 [label="gini = 0.0\nsamples = 3\nvalue = [3, 0]"] ;
908 -> 909 ;
910 [label="num_medications <= -0.307\ngini = 0.497\nsamples = 13\nvalue = [7, 6]"] ;
908 -> 910 ;
911 [label="gini = 0.0\nsamples = 3\nvalue = [3, 0]"] ;
910 -> 911 ;
912 [label="num_medications <= -0.06\ngini = 0.48\nsamples = 10\nvalue = [4, 6]"] ;
910 -> 912 ;
913 [label="gini = 0.0\nsamples = 3\nvalue = [0, 3]"] ;
912 -> 913 ;
914 [label="diabetesMed_Yes <= 0.5\ngini = 0.49\nsamples = 7\nvalue = [4, 3]"] ;
912 -> 914 ;
915 [label="gini = 0.0\nsamples = 2\nvalue = [2, 0]"] ;
914 -> 915 ;
916 [label="num_medications <= 0.435\ngini = 0.48\nsamples = 5\nvalue = [2, 3]"] ;
914 -> 916 ;
917 [label="gini = 0.0\nsamples = 2\nvalue = [2, 0]"] ;
916 -> 917 ;
918 [label="gini = 0.0\nsamples = 3\nvalue = [0, 3]"] ;
916 -> 918 ;
919 [label="gini = 0.0\nsamples = 8\nvalue = [8, 0]"] ;
907 -> 919 ;
920 [label="gini = 0.0\nsamples = 3\nvalue = [0, 3]"] ;
906 -> 920 ;
921 [label="num_procedures <= 1.276\ngini = 0.386\nsamples = 23\nvalue = [6, 17]"] ;
905 -> 921 ;
922 [label="gini = 0.0\nsamples = 8\nvalue = [0, 8]"] ;
921 -> 922 ;
923 [label="imputed_age <= 0.261\ngini = 0.48\nsamples = 15\nvalue = [6, 9]"] ;
921 -> 923 ;
924 [label="num_meds_total <= -0.744\ngini = 0.32\nsamples = 10\nvalue = [2, 8]"] ;
923 -> 924 ;
925 [label="gini = 0.0\nsamples = 1\nvalue = [1, 0]"] ;
924 -> 925 ;
926 [label="num_procedures <= 1.864\ngini = 0.198\nsamples = 9\nvalue = [1, 8]"] ;
924 -> 926 ;
927 [label="gini = 0.0\nsamples = 1\nvalue = [1, 0]"] ;
926 -> 927 ;
928 [label="gini = 0.0\nsamples = 8\nvalue = [0, 8]"] ;
926 -> 928 ;
929 [label="diabetesMed_Yes <= 0.5\ngini = 0.32\nsamples = 5\nvalue = [4, 1]"] ;
923 -> 929 ;
930 [label="gini = 0.0\nsamples = 1\nvalue = [0, 1]"] ;
929 -> 930 ;
931 [label="gini = 0.0\nsamples = 4\nvalue = [4, 0]"] ;
929 -> 931 ;
932 [label="imputed_age <= -0.993\ngini = 0.48\nsamples = 15\nvalue = [9, 6]"] ;
850 -> 932 ;
933 [label="gini = 0.0\nsamples = 3\nvalue = [0, 3]"] ;
932 -> 933 ;
934 [label="num_med_changes <= 0.435\ngini = 0.375\nsamples = 12\nvalue = [9, 3]"] ;
932 -> 934 ;
935 [label="time_in_hospital <= 1.382\ngini = 0.5\nsamples = 6\nvalue = [3, 3]"] ;
934 -> 935 ;
936 [label="gini = 0.0\nsamples = 3\nvalue = [0, 3]"] ;
935 -> 936 ;
937 [label="gini = 0.0\nsamples = 3\nvalue = [3, 0]"] ;
935 -> 937 ;
938 [label="gini = 0.0\nsamples = 6\nvalue = [6, 0]"] ;
934 -> 938 ;
939 [label="race_AfricanAmerican <= 0.5\ngini = 0.375\nsamples = 12\nvalue = [9, 3]"] ;
849 -> 939 ;
940 [label="num_lab_procedures <= 0.079\ngini = 0.18\nsamples = 10\nvalue = [9, 1]"] ;
939 -> 940 ;
941 [label="gini = 0.0\nsamples = 1\nvalue = [0, 1]"] ;
940 -> 941 ;
942 [label="gini = 0.0\nsamples = 9\nvalue = [9, 0]"] ;
940 -> 942 ;
943 [label="gini = 0.0\nsamples = 2\nvalue = [0, 2]"] ;
939 -> 943 ;
944 [label="admission_type_id_6 <= 0.5\ngini = 0.497\nsamples = 1191\nvalue = [552, 639]"] ;
4 -> 944 ;
945 [label="num_lab_procedures <= 1.201\ngini = 0.499\nsamples = 1135\nvalue = [541, 594]"] ;
944 -> 945 ;
946 [label="num_enc_to_date <= 1.021\ngini = 0.497\nsamples = 999\nvalue = [460, 539]"] ;
945 -> 946 ;
947 [label="time_in_hospital <= 0.037\ngini = 0.498\nsamples = 981\nvalue = [458, 523]"] ;
946 -> 947 ;
948 [label="A1Cresult_>8 <= 0.5\ngini = 0.499\nsamples = 455\nvalue = [235, 220]"] ;
947 -> 948 ;
949 [label="time_in_hospital <= -0.971\ngini = 0.498\nsamples = 437\nvalue = [232, 205]"] ;
948 -> 949 ;
950 [label="num_lab_procedures <= -0.711\ngini = 0.404\nsamples = 32\nvalue = [9, 23]"] ;
949 -> 950 ;
951 [label="admission_source_id_1 <= 0.5\ngini = 0.497\nsamples = 13\nvalue = [7, 6]"] ;
950 -> 951 ;
952 [label="imputed_age <= -0.679\ngini = 0.48\nsamples = 10\nvalue = [4, 6]"] ;
951 -> 952 ;
953 [label="gini = 0.0\nsamples = 1\nvalue = [1, 0]"] ;
952 -> 953 ;
954 [label="num_procedures <= -0.489\ngini = 0.444\nsamples = 9\nvalue = [3, 6]"] ;
952 -> 954 ;
955 [label="imputed_age <= 0.888\ngini = 0.375\nsamples = 8\nvalue = [2, 6]"] ;
954 -> 955 ;
956 [label="gini = 0.0\nsamples = 3\nvalue = [0, 3]"] ;
955 -> 956 ;
957 [label="change_Ch <= 0.5\ngini = 0.48\nsamples = 5\nvalue = [2, 3]"] ;
955 -> 957 ;
958 [label="gender_Male <= 0.5\ngini = 0.444\nsamples = 3\nvalue = [2, 1]"] ;
957 -> 958 ;
959 [label="gini = 0.0\nsamples = 2\nvalue = [2, 0]"] ;
958 -> 959 ;
960 [label="gini = 0.0\nsamples = 1\nvalue = [0, 1]"] ;
958 -> 960 ;
961 [label="gini = 0.0\nsamples = 2\nvalue = [0, 2]"] ;
957 -> 961 ;
962 [label="gini = 0.0\nsamples = 1\nvalue = [1, 0]"] ;
954 -> 962 ;
963 [label="gini = 0.0\nsamples = 3\nvalue = [3, 0]"] ;
951 -> 963 ;
964 [label="num_meds_total <= 1.426\ngini = 0.188\nsamples = 19\nvalue = [2, 17]"] ;
950 -> 964 ;
965 [label="num_medications <= -1.295\ngini = 0.105\nsamples = 18\nvalue = [1, 17]"] ;
964 -> 965 ;
966 [label="gini = 0.0\nsamples = 1\nvalue = [1, 0]"] ;
965 -> 966 ;
967 [label="gini = 0.0\nsamples = 17\nvalue = [0, 17]"] ;
965 -> 967 ;
968 [label="gini = 0.0\nsamples = 1\nvalue = [1, 0]"] ;
964 -> 968 ;
969 [label="num_medications <= 1.3\ngini = 0.495\nsamples = 405\nvalue = [223, 182]"] ;
949 -> 969 ;
970 [label="num_lab_procedures <= -1.144\ngini = 0.498\nsamples = 385\nvalue = [206, 179]"] ;
969 -> 970 ;
971 [label="num_medications <= -0.925\ngini = 0.447\nsamples = 80\nvalue = [53, 27]"] ;
970 -> 971 ;
972 [label="gini = 0.0\nsamples = 9\nvalue = [9, 0]"] ;
971 -> 972 ;
973 [label="num_enc_to_date <= 0.032\ngini = 0.471\nsamples = 71\nvalue = [44, 27]"] ;
971 -> 973 ;
974 [label="imputed_age <= 0.888\ngini = 0.462\nsamples = 69\nvalue = [44, 25]"] ;
973 -> 974 ;
975 [label="imputed_age <= 0.261\ngini = 0.495\nsamples = 40\nvalue = [22, 18]"] ;
974 -> 975 ;
976 [label="time_in_hospital <= -0.635\ngini = 0.337\nsamples = 14\nvalue = [11, 3]"] ;
975 -> 976 ;
977 [label="gini = 0.0\nsamples = 3\nvalue = [0, 3]"] ;
976 -> 977 ;
978 [label="gini = 0.0\nsamples = 11\nvalue = [11, 0]"] ;
976 -> 978 ;
979 [label="num_procedures <= 0.1\ngini = 0.488\nsamples = 26\nvalue = [11, 15]"] ;
975 -> 979 ;
980 [label="admission_type_id_2 <= 0.5\ngini = 0.455\nsamples = 20\nvalue = [7, 13]"] ;
979 -> 980 ;
981 [label="num_medications <= 0.311\ngini = 0.337\nsamples = 14\nvalue = [3, 11]"] ;
980 -> 981 ;
982 [label="max_glu_serum_>200 <= 0.5\ngini = 0.26\nsamples = 13\nvalue = [2, 11]"] ;
981 -> 982 ;
983 [label="admission_type_id_3 <= 0.5\ngini = 0.165\nsamples = 11\nvalue = [1, 10]"] ;
982 -> 983 ;
984 [label="gini = 0.0\nsamples = 8\nvalue = [0, 8]"] ;
983 -> 984 ;
985 [label="num_medications <= -0.492\ngini = 0.444\nsamples = 3\nvalue = [1, 2]"] ;
983 -> 985 ;
986 [label="gini = 0.0\nsamples = 2\nvalue = [0, 2]"] ;
985 -> 986 ;
987 [label="gini = 0.0\nsamples = 1\nvalue = [1, 0]"] ;
985 -> 987 ;
988 [label="change_Ch <= 0.5\ngini = 0.5\nsamples = 2\nvalue = [1, 1]"] ;
982 -> 988 ;
989 [label="gini = 0.0\nsamples = 1\nvalue = [1, 0]"] ;
988 -> 989 ;
990 [label="gini = 0.0\nsamples = 1\nvalue = [0, 1]"] ;
988 -> 990 ;
991 [label="gini = 0.0\nsamples = 1\nvalue = [1, 0]"] ;
981 -> 991 ;
992 [label="num_meds_total <= 0.341\ngini = 0.444\nsamples = 6\nvalue = [4, 2]"] ;
980 -> 992 ;
993 [label="gini = 0.0\nsamples = 3\nvalue = [3, 0]"] ;
992 -> 993 ;
994 [label="num_procedures <= -0.489\ngini = 0.444\nsamples = 3\nvalue = [1, 2]"] ;
992 -> 994 ;
995 [label="gini = 0.0\nsamples = 1\nvalue = [1, 0]"] ;
994 -> 995 ;
996 [label="gini = 0.0\nsamples = 2\nvalue = [0, 2]"] ;
994 -> 996 ;
997 [label="num_lab_procedures <= -1.195\ngini = 0.444\nsamples = 6\nvalue = [4, 2]"] ;
979 -> 997 ;
998 [label="max_glu_serum_Norm <= 0.5\ngini = 0.32\nsamples = 5\nvalue = [4, 1]"] ;
997 -> 998 ;
999 [label="gini = 0.0\nsamples = 3\nvalue = [3, 0]"] ;
998 -> 999 ;
1000 [label="gender_Female <= 0.5\ngini = 0.5\nsamples = 2\nvalue = [1, 1]"] ;
998 -> 1000 ;
1001 [label="gini = 0.0\nsamples = 1\nvalue = [0, 1]"] ;
1000 -> 1001 ;
1002 [label="gini = 0.0\nsamples = 1\nvalue = [1, 0]"] ;
1000 -> 1002 ;
1003 [label="gini = 0.0\nsamples = 1\nvalue = [0, 1]"] ;
997 -> 1003 ;
1004 [label="max_glu_serum_>200 <= 0.5\ngini = 0.366\nsamples = 29\nvalue = [22, 7]"] ;
974 -> 1004 ;
1005 [label="race_AfricanAmerican <= 0.5\ngini = 0.311\nsamples = 26\nvalue = [21, 5]"] ;
1004 -> 1005 ;
1006 [label="diabetesMed_No <= 0.5\ngini = 0.269\nsamples = 25\nvalue = [21, 4]"] ;
1005 -> 1006 ;
1007 [label="admission_type_id_2 <= 0.5\ngini = 0.105\nsamples = 18\nvalue = [17, 1]"] ;
1006 -> 1007 ;
1008 [label="gini = 0.0\nsamples = 14\nvalue = [14, 0]"] ;
1007 -> 1008 ;
1009 [label="change_Ch <= 0.5\ngini = 0.375\nsamples = 4\nvalue = [3, 1]"] ;
1007 -> 1009 ;
1010 [label="gini = 0.0\nsamples = 1\nvalue = [0, 1]"] ;
1009 -> 1010 ;
1011 [label="gini = 0.0\nsamples = 3\nvalue = [3, 0]"] ;
1009 -> 1011 ;
1012 [label="number_diagnoses <= -0.469\ngini = 0.49\nsamples = 7\nvalue = [4, 3]"] ;
1006 -> 1012 ;
1013 [label="gini = 0.0\nsamples = 2\nvalue = [0, 2]"] ;
1012 -> 1013 ;
1014 [label="time_in_hospital <= -0.299\ngini = 0.32\nsamples = 5\nvalue = [4, 1]"] ;
1012 -> 1014 ;
1015 [label="gini = 0.0\nsamples = 4\nvalue = [4, 0]"] ;
1014 -> 1015 ;
1016 [label="gini = 0.0\nsamples = 1\nvalue = [0, 1]"] ;
1014 -> 1016 ;
1017 [label="gini = 0.0\nsamples = 1\nvalue = [0, 1]"] ;
1005 -> 1017 ;
1018 [label="number_diagnoses <= 0.563\ngini = 0.444\nsamples = 3\nvalue = [1, 2]"] ;
1004 -> 1018 ;
1019 [label="change_Ch <= 0.5\ngini = 0.5\nsamples = 2\nvalue = [1, 1]"] ;
1018 -> 1019 ;
1020 [label="gini = 0.0\nsamples = 1\nvalue = [1, 0]"] ;
1019 -> 1020 ;
1021 [label="gini = 0.0\nsamples = 1\nvalue = [0, 1]"] ;
1019 -> 1021 ;
1022 [label="gini = 0.0\nsamples = 1\nvalue = [0, 1]"] ;
1018 -> 1022 ;
1023 [label="gini = 0.0\nsamples = 2\nvalue = [0, 2]"] ;
973 -> 1023 ;
1024 [label="num_lab_procedures <= 1.15\ngini = 0.5\nsamples = 305\nvalue = [153, 152]"] ;
970 -> 1024 ;
1025 [label="num_lab_procedures <= -1.042\ngini = 0.5\nsamples = 300\nvalue = [153, 147]"] ;
1024 -> 1025 ;
1026 [label="admission_source_id_17 <= 0.5\ngini = 0.219\nsamples = 8\nvalue = [1, 7]"] ;
1025 -> 1026 ;
1027 [label="gini = 0.0\nsamples = 7\nvalue = [0, 7]"] ;
1026 -> 1027 ;
1028 [label="gini = 0.0\nsamples = 1\nvalue = [1, 0]"] ;
1026 -> 1028 ;
1029 [label="imputed_age <= 1.516\ngini = 0.499\nsamples = 292\nvalue = [152, 140]"] ;
1025 -> 1029 ;
1030 [label="num_lab_procedures <= 0.538\ngini = 0.5\nsamples = 264\nvalue = [133, 131]"] ;
1029 -> 1030 ;
1031 [label="diabetesMed_No <= 0.5\ngini = 0.497\nsamples = 187\nvalue = [101, 86]"] ;
1030 -> 1031 ;
1032 [label="imputed_age <= -0.366\ngini = 0.487\nsamples = 155\nvalue = [90, 65]"] ;
1031 -> 1032 ;
1033 [label="num_lab_procedures <= 0.207\ngini = 0.43\nsamples = 16\nvalue = [5, 11]"] ;
1032 -> 1033 ;
1034 [label="num_enc_to_date <= 0.032\ngini = 0.486\nsamples = 12\nvalue = [5, 7]"] ;
1033 -> 1034 ;
1035 [label="num_lab_procedures <= -0.201\ngini = 0.42\nsamples = 10\nvalue = [3, 7]"] ;
1034 -> 1035 ;
1036 [label="gini = 0.0\nsamples = 5\nvalue = [0, 5]"] ;
1035 -> 1036 ;
1037 [label="number_diagnoses <= 0.563\ngini = 0.48\nsamples = 5\nvalue = [3, 2]"] ;
1035 -> 1037 ;
1038 [label="num_lab_procedures <= -0.074\ngini = 0.444\nsamples = 3\nvalue = [1, 2]"] ;
1037 -> 1038 ;
1039 [label="gini = 0.0\nsamples = 1\nvalue = [1, 0]"] ;
1038 -> 1039 ;
1040 [label="gini = 0.0\nsamples = 2\nvalue = [0, 2]"] ;
1038 -> 1040 ;
1041 [label="gini = 0.0\nsamples = 2\nvalue = [2, 0]"] ;
1037 -> 1041 ;
1042 [label="gini = 0.0\nsamples = 2\nvalue = [2, 0]"] ;
1034 -> 1042 ;
1043 [label="gini = 0.0\nsamples = 4\nvalue = [0, 4]"] ;
1033 -> 1043 ;
1044 [label="num_medications <= -0.06\ngini = 0.475\nsamples = 139\nvalue = [85, 54]"] ;
1032 -> 1044 ;
1045 [label="num_medications <= -0.677\ngini = 0.418\nsamples = 74\nvalue = [52, 22]"] ;
1044 -> 1045 ;
1046 [label="admission_source_id_7 <= 0.5\ngini = 0.497\nsamples = 26\nvalue = [14, 12]"] ;
1045 -> 1046 ;
1047 [label="num_lab_procedures <= -0.226\ngini = 0.444\nsamples = 12\nvalue = [4, 8]"] ;
1046 -> 1047 ;
1048 [label="num_procedures <= -0.489\ngini = 0.48\nsamples = 5\nvalue = [3, 2]"] ;
1047 -> 1048 ;
1049 [label="A1Cresult_Norm <= 0.5\ngini = 0.444\nsamples = 3\nvalue = [1, 2]"] ;
1048 -> 1049 ;
1050 [label="gini = 0.0\nsamples = 2\nvalue = [0, 2]"] ;
1049 -> 1050 ;
1051 [label="gini = 0.0\nsamples = 1\nvalue = [1, 0]"] ;
1049 -> 1051 ;
1052 [label="gini = 0.0\nsamples = 2\nvalue = [2, 0]"] ;
1048 -> 1052 ;
1053 [label="imputed_age <= 0.888\ngini = 0.245\nsamples = 7\nvalue = [1, 6]"] ;
1047 -> 1053 ;
1054 [label="gini = 0.0\nsamples = 6\nvalue = [0, 6]"] ;
1053 -> 1054 ;
1055 [label="gini = 0.0\nsamples = 1\nvalue = [1, 0]"] ;
1053 -> 1055 ;
1056 [label="num_med_changes <= 0.435\ngini = 0.408\nsamples = 14\nvalue = [10, 4]"] ;
1046 -> 1056 ;
1057 [label="num_lab_procedures <= -0.226\ngini = 0.355\nsamples = 13\nvalue = [10, 3]"] ;
1056 -> 1057 ;
1058 [label="num_medications <= -0.925\ngini = 0.49\nsamples = 7\nvalue = [4, 3]"] ;
1057 -> 1058 ;
1059 [label="gender_Male <= 0.5\ngini = 0.48\nsamples = 5\nvalue = [2, 3]"] ;
1058 -> 1059 ;
1060 [label="admission_type_id_1 <= 0.5\ngini = 0.444\nsamples = 3\nvalue = [2, 1]"] ;
1059 -> 1060 ;
1061 [label="gini = 0.0\nsamples = 2\nvalue = [2, 0]"] ;
1060 -> 1061 ;
1062 [label="gini = 0.0\nsamples = 1\nvalue = [0, 1]"] ;
1060 -> 1062 ;
1063 [label="gini = 0.0\nsamples = 2\nvalue = [0, 2]"] ;
1059 -> 1063 ;
1064 [label="gini = 0.0\nsamples = 2\nvalue = [2, 0]"] ;
1058 -> 1064 ;
1065 [label="gini = 0.0\nsamples = 6\nvalue = [6, 0]"] ;
1057 -> 1065 ;
1066 [label="gini = 0.0\nsamples = 1\nvalue = [0, 1]"] ;
1056 -> 1066 ;
1067 [label="race_unknown <= 0.5\ngini = 0.33\nsamples = 48\nvalue = [38, 10]"] ;
1045 -> 1067 ;
1068 [label="race_Other <= 0.5\ngini = 0.292\nsamples = 45\nvalue = [37, 8]"] ;
1067 -> 1068 ;
1069 [label="max_glu_serum_Norm <= 0.5\ngini = 0.268\nsamples = 44\nvalue = [37, 7]"] ;
1068 -> 1069 ;
1070 [label="num_meds_total <= 0.341\ngini = 0.24\nsamples = 43\nvalue = [37, 6]"] ;
1069 -> 1070 ;
1071 [label="admission_type_id_3 <= 0.5\ngini = 0.083\nsamples = 23\nvalue = [22, 1]"] ;
1070 -> 1071 ;
1072 [label="gini = 0.0\nsamples = 20\nvalue = [20, 0]"] ;
1071 -> 1072 ;
1073 [label="num_lab_procedures <= -0.609\ngini = 0.444\nsamples = 3\nvalue = [2, 1]"] ;
1071 -> 1073 ;
1074 [label="gini = 0.0\nsamples = 1\nvalue = [0, 1]"] ;
1073 -> 1074 ;
1075 [label="gini = 0.0\nsamples = 2\nvalue = [2, 0]"] ;
1073 -> 1075 ;
1076 [label="race_Caucasian <= 0.5\ngini = 0.375\nsamples = 20\nvalue = [15, 5]"] ;
1070 -> 1076 ;
1077 [label="gini = 0.0\nsamples = 1\nvalue = [0, 1]"] ;
1076 -> 1077 ;
1078 [label="time_in_hospital <= -0.635\ngini = 0.332\nsamples = 19\nvalue = [15, 4]"] ;
1076 -> 1078 ;
1079 [label="number_diagnoses <= 0.047\ngini = 0.5\nsamples = 4\nvalue = [2, 2]"] ;
1078 -> 1079 ;
1080 [label="gini = 0.0\nsamples = 2\nvalue = [2, 0]"] ;
1079 -> 1080 ;
1081 [label="gini = 0.0\nsamples = 2\nvalue = [0, 2]"] ;
1079 -> 1081 ;
1082 [label="num_medications <= -0.43\ngini = 0.231\nsamples = 15\nvalue = [13, 2]"] ;
1078 -> 1082 ;
1083 [label="gini = 0.0\nsamples = 7\nvalue = [7, 0]"] ;
1082 -> 1083 ;
1084 [label="time_in_hospital <= -0.299\ngini = 0.375\nsamples = 8\nvalue = [6, 2]"] ;
1082 -> 1084 ;
1085 [label="admission_source_id_7 <= 0.5\ngini = 0.444\nsamples = 6\nvalue = [4, 2]"] ;
1084 -> 1085 ;
1086 [label="gini = 0.0\nsamples = 1\nvalue = [0, 1]"] ;
1085 -> 1086 ;
1087 [label="num_meds_total <= 1.426\ngini = 0.32\nsamples = 5\nvalue = [4, 1]"] ;
1085 -> 1087 ;
1088 [label="number_diagnoses <= -0.469\ngini = 0.5\nsamples = 2\nvalue = [1, 1]"] ;
1087 -> 1088 ;
1089 [label="gini = 0.0\nsamples = 1\nvalue = [1, 0]"] ;
1088 -> 1089 ;
1090 [label="gini = 0.0\nsamples = 1\nvalue = [0, 1]"] ;
1088 -> 1090 ;
1091 [label="gini = 0.0\nsamples = 3\nvalue = [3, 0]"] ;
1087 -> 1091 ;
1092 [label="gini = 0.0\nsamples = 2\nvalue = [2, 0]"] ;
1084 -> 1092 ;
1093 [label="gini = 0.0\nsamples = 1\nvalue = [0, 1]"] ;
1069 -> 1093 ;
1094 [label="gini = 0.0\nsamples = 1\nvalue = [0, 1]"] ;
1068 -> 1094 ;
1095 [label="num_meds_total <= 1.426\ngini = 0.444\nsamples = 3\nvalue = [1, 2]"] ;
1067 -> 1095 ;
1096 [label="gini = 0.0\nsamples = 2\nvalue = [0, 2]"] ;
1095 -> 1096 ;
1097 [label="gini = 0.0\nsamples = 1\nvalue = [1, 0]"] ;
1095 -> 1097 ;
1098 [label="race_Caucasian <= 0.5\ngini = 0.5\nsamples = 65\nvalue = [33, 32]"] ;
1044 -> 1098 ;
1099 [label="num_med_changes <= 0.435\ngini = 0.36\nsamples = 17\nvalue = [13, 4]"] ;
1098 -> 1099 ;
1100 [label="num_medications <= 0.682\ngini = 0.48\nsamples = 10\nvalue = [6, 4]"] ;
1099 -> 1100 ;
1101 [label="gini = 0.0\nsamples = 3\nvalue = [0, 3]"] ;
1100 -> 1101 ;
1102 [label="num_medications <= 1.176\ngini = 0.245\nsamples = 7\nvalue = [6, 1]"] ;
1100 -> 1102 ;
1103 [label="gini = 0.0\nsamples = 6\nvalue = [6, 0]"] ;
1102 -> 1103 ;
1104 [label="gini = 0.0\nsamples = 1\nvalue = [0, 1]"] ;
1102 -> 1104 ;
1105 [label="gini = 0.0\nsamples = 7\nvalue = [7, 0]"] ;
1099 -> 1105 ;
1106 [label="num_enc_to_date <= 0.032\ngini = 0.486\nsamples = 48\nvalue = [20, 28]"] ;
1098 -> 1106 ;
1107 [label="admission_type_id_3 <= 0.5\ngini = 0.498\nsamples = 43\nvalue = [20, 23]"] ;
1106 -> 1107 ;
1108 [label="num_lab_procedures <= -0.583\ngini = 0.486\nsamples = 24\nvalue = [14, 10]"] ;
1107 -> 1108 ;
1109 [label="gini = 0.0\nsamples = 4\nvalue = [4, 0]"] ;
1108 -> 1109 ;
1110 [label="num_lab_procedures <= 0.436\ngini = 0.5\nsamples = 20\nvalue = [10, 10]"] ;
1108 -> 1110 ;
1111 [label="gender_Female <= 0.5\ngini = 0.494\nsamples = 18\nvalue = [8, 10]"] ;
1110 -> 1111 ;
1112 [label="change_Ch <= 0.5\ngini = 0.278\nsamples = 6\nvalue = [1, 5]"] ;
1111 -> 1112 ;
1113 [label="num_lab_procedures <= -0.023\ngini = 0.5\nsamples = 2\nvalue = [1, 1]"] ;
1112 -> 1113 ;
1114 [label="gini = 0.0\nsamples = 1\nvalue = [0, 1]"] ;
1113 -> 1114 ;
1115 [label="gini = 0.0\nsamples = 1\nvalue = [1, 0]"] ;
1113 -> 1115 ;
1116 [label="gini = 0.0\nsamples = 4\nvalue = [0, 4]"] ;
1112 -> 1116 ;
1117 [label="num_medications <= 1.114\ngini = 0.486\nsamples = 12\nvalue = [7, 5]"] ;
1111 -> 1117 ;
1118 [label="A1Cresult_>7 <= 0.5\ngini = 0.42\nsamples = 10\nvalue = [7, 3]"] ;
1117 -> 1118 ;
1119 [label="num_lab_procedures <= 0.385\ngini = 0.346\nsamples = 9\nvalue = [7, 2]"] ;
1118 -> 1119 ;
1120 [label="num_meds_total <= 1.426\ngini = 0.219\nsamples = 8\nvalue = [7, 1]"] ;
1119 -> 1120 ;
1121 [label="gini = 0.0\nsamples = 7\nvalue = [7, 0]"] ;
1120 -> 1121 ;
1122 [label="gini = 0.0\nsamples = 1\nvalue = [0, 1]"] ;
1120 -> 1122 ;
1123 [label="gini = 0.0\nsamples = 1\nvalue = [0, 1]"] ;
1119 -> 1123 ;
1124 [label="gini = 0.0\nsamples = 1\nvalue = [0, 1]"] ;
1118 -> 1124 ;
1125 [label="gini = 0.0\nsamples = 2\nvalue = [0, 2]"] ;
1117 -> 1125 ;
1126 [label="gini = 0.0\nsamples = 2\nvalue = [2, 0]"] ;
1110 -> 1126 ;
1127 [label="num_lab_procedures <= -0.583\ngini = 0.432\nsamples = 19\nvalue = [6, 13]"] ;
1107 -> 1127 ;
1128 [label="num_med_changes <= 0.435\ngini = 0.198\nsamples = 9\nvalue = [1, 8]"] ;
1127 -> 1128 ;
1129 [label="gini = 0.0\nsamples = 7\nvalue = [0, 7]"] ;
1128 -> 1129 ;
1130 [label="num_lab_procedures <= -0.685\ngini = 0.5\nsamples = 2\nvalue = [1, 1]"] ;
1128 -> 1130 ;
1131 [label="gini = 0.0\nsamples = 1\nvalue = [1, 0]"] ;
1130 -> 1131 ;
1132 [label="gini = 0.0\nsamples = 1\nvalue = [0, 1]"] ;
1130 -> 1132 ;
1133 [label="change_Ch <= 0.5\ngini = 0.5\nsamples = 10\nvalue = [5, 5]"] ;
1127 -> 1133 ;
1134 [label="gini = 0.0\nsamples = 3\nvalue = [3, 0]"] ;
1133 -> 1134 ;
1135 [label="imputed_age <= 0.261\ngini = 0.408\nsamples = 7\nvalue = [2, 5]"] ;
1133 -> 1135 ;
1136 [label="gini = 0.0\nsamples = 3\nvalue = [0, 3]"] ;
1135 -> 1136 ;
1137 [label="imputed_age <= 0.888\ngini = 0.5\nsamples = 4\nvalue = [2, 2]"] ;
1135 -> 1137 ;
1138 [label="num_lab_procedures <= -0.125\ngini = 0.444\nsamples = 3\nvalue = [2, 1]"] ;
1137 -> 1138 ;
1139 [label="gini = 0.0\nsamples = 1\nvalue = [0, 1]"] ;
1138 -> 1139 ;
1140 [label="gini = 0.0\nsamples = 2\nvalue = [2, 0]"] ;
1138 -> 1140 ;
1141 [label="gini = 0.0\nsamples = 1\nvalue = [0, 1]"] ;
1137 -> 1141 ;
1142 [label="gini = 0.0\nsamples = 5\nvalue = [0, 5]"] ;
1106 -> 1142 ;
1143 [label="num_medications <= 0.188\ngini = 0.451\nsamples = 32\nvalue = [11, 21]"] ;
1031 -> 1143 ;
1144 [label="race_unknown <= 0.5\ngini = 0.365\nsamples = 25\nvalue = [6, 19]"] ;
1143 -> 1144 ;
1145 [label="admission_type_id_2 <= 0.5\ngini = 0.287\nsamples = 23\nvalue = [4, 19]"] ;
1144 -> 1145 ;
1146 [label="admission_source_id_6 <= 0.5\ngini = 0.105\nsamples = 18\nvalue = [1, 17]"] ;
1145 -> 1146 ;
1147 [label="gini = 0.0\nsamples = 16\nvalue = [0, 16]"] ;
1146 -> 1147 ;
1148 [label="num_lab_procedures <= -0.303\ngini = 0.5\nsamples = 2\nvalue = [1, 1]"] ;
1146 -> 1148 ;
1149 [label="gini = 0.0\nsamples = 1\nvalue = [0, 1]"] ;
1148 -> 1149 ;
1150 [label="gini = 0.0\nsamples = 1\nvalue = [1, 0]"] ;
1148 -> 1150 ;
1151 [label="admission_source_id_7 <= 0.5\ngini = 0.48\nsamples = 5\nvalue = [3, 2]"] ;
1145 -> 1151 ;
1152 [label="gini = 0.0\nsamples = 2\nvalue = [0, 2]"] ;
1151 -> 1152 ;
1153 [label="gini = 0.0\nsamples = 3\nvalue = [3, 0]"] ;
1151 -> 1153 ;
1154 [label="gini = 0.0\nsamples = 2\nvalue = [2, 0]"] ;
